0.10085859283996745,-0.5108470916765606,0.033063620147088635,-0.16597366806730118,0.529228118220231,-0.06081491798783567,0.28254577180546603,-0.0038398566558204283,0.6537280404083832,0.968138912098838,0.1935678910865095,0.4210416596851565,0.3789591617306711,0.4028269905323734,-0.43200365320107287,0.35723006307505184,0.4043930955847108,0.6624514241818256,0.4054980295343127,-0.3588755829141783,0.19109034078672882,-0.5622432312499119,-0.7773766256793464,0.4276167314987902,0.5265957797723533,0.511772111151779,0.7044713385826988,0.2530373171772995,0.6494975766679241,0.08450672489026778,-0.6064117627094225,0.3249850455912997,-0.9790994491254739,-0.7094500428836953,0.7789534246626081,-0.9538539514370735,-0.4589085517926575,-1.2291539185240812,-0.3859784634105097,-0.8298817029023088,-1.6628491471182647,-0.01790190160626267,-1.0708640220714198,-0.914779276288277,0.16634729319428346,-0.1317214631347089,-0.4152071408676267,-0.9891315703658662,-1.0410400221526184,0.03586460808208657,0.6741749022564176,-0.125302715522551,0.1418733737658977,-0.12425103897857048,-0.5154288434310106,-0.518971112010262,-0.7304193937675669,0.2563991904695626,0.22343507461017031,0.24298193279795138,0.565447105938685,-0.32985586388802124,-0.8655135119035818,-0.6691693330288498,0.8532515614073103,0.9846275076079177,-4.549007566231619,-4.2467021968747405,-1.9959314184830659,-5.317448804114181,-11.522136374663678,-8.998195389632922,-6.58562589643697,-13.70298607998727,-5.429664285789446,-5.455304623235046,-1.1504422771871976,-0.2592797190008523,-0.30468400637176885,-0.18732913164258122,1.1269230328587305,1.244465285363399,-0.9729781887091813,0.4404284140750454,0.9322976633597639,0.9700412684329307,1.0017532982196233,-0.21560681531826917,0.5904433867341653,-4.571625698156985,-2.868553384406994,-1.1810854305775758,6.787822705579518,6.9815434766269835,3.8500339096100666,4.9104091211340055,15.803668853774157,12.485384782054894,-6.182328967213498,-11.465270117640395,7.370413049459949,-2.5639197486765424,0.4088719210381241,-2.466611819261008,-8.886348979301854,5.306236245193902,5.194194666872368,-3.201499320501812,-3.2619523616624866,-0.08837798742473951,-0.4048185996422177,-0.2739432189595723,0.6835228231511334,-0.8897093093920009,-0.8457204462569905,-0.0596446748802434,-1.545816448548383,-5.168042949600135,-2.8089828661156857,-7.657749513247563,-4.68166970062244,0.8121425101236304,7.472458580328923,-9.32061672892917,6.846738866716216,-0.5826069626143591,-6.568882930787518,0.9570877199080292,5.342512204605632,-7.528793930078103,-23.042126492955084,2.858360264222726,3.4244745070807343,-0.8541820611565921,6.116966886792836,0.3112077393151326,-7.111217853858894,-3.615013978913692,-0.7385419489807413,0.5461417180373342,-0.5974625667524429,0.10398111430988544,-0.023553616094893808,0.3530354520789565,-2.9603419133947044,0.10953529358666907,-6.057484572652424,-9.968842063396732,1.2625575263724513,12.90492391709049,8.734074138980004,10.587269633494165,6.222741601850886,-1.9514254466961454,-14.669940041840329,-0.050341840116964395,4.592805053812735,-1.2681814240137728,7.432340544404724,-8.579090855866612,-14.885935288272075,8.545468173931585,-11.489276143047327,-1.599620137230637,-4.059164998063761,-2.830615052824378,-0.3714248164017542,-0.950577278391931,-0.5906732455353343,0.9911123291841171,2.0288967234781166,0.3944581881242599,-0.24978190598902358,4.766767749404461,16.020885668343595,-1.6215804555183393,-1.3245344297598445,1.476612800690488,-2.385779862063408,-12.20926429958709,13.627143657677436,4.114621782462121,-1.9325758380250015,3.815447145839728,6.052603516855931,-14.207849747504687,-1.251391192355448,2.9975099782360264,-7.258448060703434,-6.606572917037321,-6.500474531397301,-7.7693883863025714,4.469645153008824,0.09620343737548724,4.429544026704947,3.0311019348184907,0.16355376132575783,-0.18612132471474502,4.776712233426457,4.310096868419079,11.751116718302493,6.80328444643695,4.798554514939888,-5.568138338523617,5.244691257140628,-6.954186778385146,6.004476247847939,-1.8868076531790536,-3.3094367616213445,1.7960987146782506,-8.59568828425789,-16.880703898072515,9.090752288969606,-10.163784697249678,-0.16201782219476976,9.647487974166388,9.262808038580477,-0.46911148664522706,9.828020391274656,-8.155502617473541,-15.631879368650178,-12.119167678977231,5.54591452481231,1.929851318630883,0.31191883024129297,0.40821185975500085,4.918154250616572,-3.3998903178811486,4.979402301411566,-7.583320809750674,-10.390793488661085,12.598159264489894,17.63866292105338,1.3110167793282486,2.110543374335279,10.094672067965618,2.300252518077576,-0.36888263693353857,16.667463397956972,-0.9790451858919099,-13.662438012127103,21.993135129217663,-8.439891103113395,3.8931781166526847,2.0558425564162373,7.118183841174795,4.0738044387009955,-6.521587092556158,-20.319767103060954,-4.123665678035861,1.0392146191487828,0.39672324346733245,-0.8131261827087156,-0.7278365005194299,-3.4861001494431125,-0.12799625732355874,15.53435604971299,19.429141351963064,4.318894946434292,-1.2431270719018064,1.465861596559942,11.383655458704322,16.1630089632591,11.921639460592562,19.03324662150691,-13.334351217457854,4.514697893860078,26.726501780990603,-9.970036947579313,6.985277205610875,-9.198096200258048,6.902975369421085,-4.251980902638948,-6.637798853993859,1.0221705793205458,-0.39276027532513735,-9.292892395982555,-3.638151591713547,-1.048682931782449,-0.24104074988006682,-0.9372752023442295,-0.5398909721317781,4.517764022819459,-3.4604248444033905,-4.9471781373604005,4.960394081283423,-7.31991452068521,-6.164484838880932,18.76665055440181,17.872689037991822,-0.25375538109719936,-7.730776844681975,2.119574222157451,19.650402802266157,14.950884341581943,15.412768520911142,14.586862395691497,10.596381062199542,7.533811896161519,0.23885503785119655,-15.066066303079765,-1.8303210335678046,-23.142520554962466,-15.119254117620233,-5.5322004512923115,-0.8539901433185179,-1.4120678095880312,0.5988762696676334,-0.3625965208753503,0.38059369551550254,2.258400968278521,-5.856174893529341,-12.80718742732152,-9.564352701336958,-2.1946961211128784,17.178284468083138,5.167000746654583,11.790110662777813,-2.4220450638537274,-11.518652887707002,-20.836843930475602,-45.440619636181076,-28.829875127564318,-13.953324576158533,-0.7712825844380601,-24.521742076987795,-9.036297279588917,-6.345286754501925,-16.162853076794146,-4.435585535144733,-9.886764220572557,-32.88383344878242,-9.1553694275006,9.032602858241665,-2.140381929851361,-2.1309177393055285,0.7756512345104025,0.4042588022743048,0.7014179711864089,-5.993696001863784,-13.79372954327031,-4.694812829100355,-11.861193640040167,-17.88933099269655,-3.0936124311229922,-8.355780696621643,-30.234195210862293,-52.38491519098745,-36.82557420424684,-33.256635251174544,-35.09685076298336,-13.660135737707435,-11.360087355812281,-8.477390118935372,-0.22552995781162882,-11.705338716789427,-14.5308545622028,-1.5480390675760616,-26.487451729007503,-16.98151674578478,3.093667836431306,17.515503948774104,-2.8438886983100655,-4.399290756282751,-0.4145786089773882,-0.06687326656380288,-0.133278686818577,-8.9236049145054,-27.33422511978078,-30.36671447096831,-44.93510091442097,-62.917906613204636,-88.74077330491856,-74.32696850470124,-66.8104722882523,-34.54837787776929,-23.321118707427917,-17.862926726074633,-14.207897989076667,-15.016764990847642,-7.520568278602272,-22.51208469910389,9.056500882879716,-13.686721218564145,-9.833104440476918,-10.299223499141268,-17.780576558188752,-18.754630816961253,4.596859399729219,16.847496926386267,2.846110813499303,-1.2652096590970374,-0.14446383266561294,-1.1685262700521697,-0.5967189487700175,-11.677360072864023,-28.805620447813403,-50.96096003898476,-73.88412172233116,-71.95065490828243,-69.11858738856667,-45.455371142675006,-14.733905615514013,2.1689781897026172,-13.147133701039083,-3.5127895018999524,-3.0249405268691048,-9.917631251658317,-6.145551070435647,-6.781869099287746,4.103931868913527,5.864631727426107,-6.975454390936035,-2.337287319267316,-12.67631671684305,-2.3477490923326068,5.105452778966006,14.018883482450201,7.965060045744908,-0.22811749473466975,0.34812514134676675,-0.7530718214791357,1.437020917892567,-7.397590787065603,-20.189748679707144,-29.096359674652703,-30.90490403537735,-7.79090674394939,4.50940810426605,17.25426630449953,8.313814095272974,14.810954881489168,-12.116845578236514,-0.055750156325080964,1.710723281365655,-2.6778310927240674,2.1403403885203653,-13.428331667383175,-3.6500914400696174,-28.209658516842524,-14.900267285038877,-8.601558734091855,-1.2131235238868525,1.2935457560255181,4.115089088938348,17.994243124451064,10.95715038026435,-0.40585500719280754,-0.03993698588676246,-0.7960414226877509,4.072032158591127,-7.215672484899402,-18.9874365862774,-8.666958032183329,14.480491293006144,19.309215023228063,10.270650890060015,0.5675223751766463,1.585148116622889,3.4921051006757566,-1.2283591752688356,6.7632866486633585,-7.616811621827451,5.378944113801037,-5.881107499697358,13.981862713947109,14.596460502484385,12.440736524086805,4.058696422051827,-0.3240202738772912,8.942097290779333,-1.1124145576150901,4.543730976206142,18.069887303981492,8.93146605308803,0.22739839882468396,0.20153514327199473,-0.39365274698129504,3.8615674423954998,-3.706038949144289,-0.7774033375244674,0.44541125917743546,12.38103896537582,10.244193618193563,7.948824476709276,18.655307506927606,-8.116844064901878,18.33188779720586,-14.214017690615355,23.17337023232247,-6.059714537879019,3.9165982516825,-1.0859248932534962,-20.898792284005154,-13.777894956392007,-7.7969783992737245,4.025233496863315,6.35360049010099,6.338744478018365,11.317191846199387,-1.1959580975942354,6.796530956872712,8.399256520151441,0.2920799179937023,0.8193207671248816,0.24402837413937337,-2.3231032537147547,2.4264030626076623,3.6755358325394316,-5.414299820110559,-3.7935709506496202,18.690916520050948,-12.325031479204656,-4.383522502720245,22.26492734146126,1.004924701392026,21.627534070324035,5.63061214174115,25.325094427041304,8.465217211667413,-0.9821566446899456,7.900235419043157,3.1985510093140865,-8.015308729003666,-16.073354068481468,-6.716224253888501,6.702429391757186,3.8471905907209902,13.616051227217215,15.633379696000166,8.814972438415031,4.451728446986051,0.7063625007530823,0.750357222930829,0.3443254850393627,-5.524943835138083,-13.547570018597677,-5.850094352736083,16.600555867201155,19.07497488809338,-6.213847970416262,20.262834586058855,8.2960971353647,9.53949424755501,8.469622376454032,15.222413055580981,5.422166070022266,-2.6196036073352182,10.573916650794533,-6.917719629082174,-23.917098917015874,6.209455269634552,3.936757863372148,1.5463799587153682,-14.521202390828561,10.190083503443429,12.59713979749908,12.951434276444,7.191490107085336,3.212267657417593,-0.5089189674018391,-0.20000138561012082,-0.49990791498227755,-3.246686885307461,0.5635510966553426,0.6622857643241262,21.518412309181972,6.089008066053875,4.45244691516477,12.95006403815311,9.787324822220663,9.606276470285033,14.740300884433122,5.759619838862757,0.77854041237076,1.638166933407768,6.51924734818635,-13.377807328122719,-2.8047396097402677,17.73688116617219,-9.167486293466624,5.274266385413315,1.3522882585072689,1.3576253750705856,10.844502762672665,13.841058205792118,2.757234042794613,0.8186615493392372,-0.6106074860533238,0.14294080655003985,-3.022146240528965,3.1104196580553327,-10.594175522372383,6.06879104014422,-8.933542273485168,-10.6845783505061,7.949571010853836,3.959689608113283,6.872437101356078,8.558110819561815,3.0525710892123095,-5.824463100350645,8.31860219686025,-21.853124493123214,-1.3369148458294724,9.441413473716858,19.2540507577697,2.807313828806061,-1.8796614007348258,4.8052739880363164,-1.3656652240326153,19.434921391614978,12.394557219495507,15.077684633041752,0.09655178695095835,0.6451259166528038,0.029325725323517068,-0.06622882275844146,-1.2090422972044734,4.791200685404618,-2.8903181091802295,29.41602793438726,3.480464934566649,2.502161113324294,13.52198638763569,17.841908353516423,-9.720393998887761,-13.44640040099354,8.346270627822237,-4.143552929447357,14.352274637560503,0.3896172017863258,0.36467022707365504,-4.669876839445189,11.693553067106402,0.3820414144065014,18.250122654662245,13.900345315883385,15.69933549648849,15.125330639121254,4.5417527149440575,2.6803838859725913,1.0092789702336789,0.7867435119531507,-0.9774229724079821,-0.4283287582683879,0.2530168953148947,-0.25072189271375256,-7.57918892199574,16.262838462323856,14.777834820428724,-6.530006827571524,-15.473157729256336,-3.3560651499498597,-6.604605932987146,1.7189317165410045,3.442862630640828,-1.461265196731208,-6.696516056295671,-0.7015786913381006,-3.1711764914682026,-6.611061499348827,0.35418903995296797,0.8104989931536845,-8.68026537199866,6.495063788292607,19.742857790904107,7.686570503734963,-1.0324157548583581,1.2872515094863193,-0.6034160545299916,-0.7488936582297077,0.05932970938428994,0.018151999652762818,-1.2857914655812517,-14.24881836333562,-13.429380680902309,-9.400576271709761,-10.556257734098637,3.4375358730398586,-4.5121600784847695,-4.0219045961635,-12.940638763615729,7.154825511174879,6.37967901189003,-22.898759290129945,0.9894850550745039,6.3201730985083,-2.015763929734919,2.611024500411384,1.547383981076381,-0.6860461079412636,-11.126750239431038,3.89510409982325,-0.8263273446361097,0.08294845330002276,2.641626598954282,1.4461207979392958,0.7011219804533494,-0.17975869482023388,0.24209614867483054,-0.9087890872928133,-0.1408544054642113,-0.2781995106256571,6.1058563780303725,6.395074256297475,1.2203292177863954,1.4969998097352963,5.778746813257946,4.808120391532329,-13.545876542466914,-4.7467406647898125,-15.227826261709852,1.2881096230304547,20.815746712975212,23.43563104329392,6.010834953886202,-0.34322206640929415,-7.2161546622294805,-18.113797479550364,-17.692747741204915,-6.448471084087944,-2.536836575654803,-1.28758617564466,0.20816753045469097,-0.4853442609493043,0.0882012729849183,-0.5870853173918102,-0.7487257535021363,-0.6854212319121296,0.28278591386783103,-0.9210878118394323,1.0755898623911548,-4.643653616166285,1.0659425623515593,6.059953558367921,4.153886377109617,4.329458506005079,1.969449938005156,3.749473944096559,9.941619724874323,6.184793532757653,6.2312236093058395,10.819685877596875,11.94103375636916,0.15860793112992044,-6.967198897871959,-6.580401734748397,-14.628243892739745,-6.877437518838764,-0.4881110536193927,-0.889077641124818,-0.6920156625175218,0.9091021863078722,-0.5813193425819776,0.8361436819676662,0.7496050651258594,0.41817101079046104,-0.47740343458476,0.6740419549237688,0.9500140291094892,-0.2527619453169063,0.18337971044814227,0.06659428764070356,0.8220162994566198,-0.11324115604226896,2.8747601948943693,1.6700601410357867,0.6692975763100304,-0.8096981938209243,0.9075609260708664,0.7101125782197703,0.26111486793842476,1.1467272787345284,-0.6219484835010815,-0.009454261569199651,-6.972366353274777,-4.707238254505356,-0.5516551546177961,0.34967678450920103,0.822673675223756,0.8314850328808383,0.2536435378998567,-0.37346071504981126
-0.8153589521264502,-0.45905219189343205,0.2896893600608974,-0.5337331997605255,-0.3502775683313488,0.055964586670765426,0.8872566208784143,-0.050861817454463276,0.4137901836174285,-0.39775395676768577,-0.27190459458282246,0.9365411239961736,-1.1359255329122506,-1.2478109415117828,-0.7040664350610222,-0.9464481859995715,0.42444968031250774,-0.4685547112736701,0.8660670203382472,-0.2714680270510008,0.6802576331411221,-0.6388474540542806,-0.29047919953158186,0.8445171910625535,0.46284754344244683,0.8183728311374667,0.252473694138025,0.7934293956119964,0.8377981363726859,0.5799709038197809,0.2794769728727582,-0.9769377791932794,-0.44182861191898976,-1.002595129680991,0.026449341926199472,-0.7467793754203832,0.4186448057438684,-1.4375318374002661,-1.4405600827652825,-2.7602845937150025,-1.5504761903770863,-1.6284203749285033,-0.43382155548982565,-1.0291397425111664,-1.3686277411852743,-1.3031340830151819,-0.3606267825187905,-2.2189237705522746,-0.8995810409652567,0.14182551948849598,-0.9424190204372218,-0.36217474293131163,0.47614907583544297,-0.017914671561909845,0.2028176793690779,-0.1754576785441868,0.5955169519850048,0.9595212185484749,0.5830816153738928,0.3170704542024213,-0.4119770648746626,-0.4718397001799067,-1.0325721887696604,-1.1572357414548655,1.4863437430828885,4.960572843847094,-2.3969453987457037,-10.259004997399048,-14.744087364407934,-11.823324481571813,-12.871576276718448,1.6054229655371222,-1.9096527535134356,-7.192387365859701,-4.264800372061244,-3.5613850634308144,-2.3582640932144603,-3.2399213958156547,-2.9409754151982077,-1.0242032270437642,0.33543753547674593,0.5723552491266861,-0.13449996402103848,0.3013569765768229,-0.5174895085163866,-0.6382793042363828,0.41669703000127695,0.06850216809095337,0.9228860063793235,-0.8225879484510333,-0.33491287326556585,-3.246296362039907,4.606558430774859,8.875760152548514,3.6490010528670243,15.398358482666676,8.204465735006874,10.018335571826807,3.637529980320085,-14.633977110648793,-4.892831963747639,8.18195916742505,-6.606170850405407,-14.160017501874611,-16.306503446605394,-22.117954998375563,-18.365871356019245,-17.00169795870991,-5.351800451040492,-1.3626590642985212,-0.5768691579815355,-0.10494504977351071,0.49903015955227903,-0.3348209527456467,0.239868839466544,-0.6896746595514178,1.455818988438375,11.93327115738222,6.6539909222418,0.540274044367565,26.48727542476263,4.376831899380391,5.393702122592532,3.9074392589178744,2.5662457854269074,13.78645398866884,5.5994807633606705,4.231110294476117,-5.857023727230039,-0.4657910939914579,-7.14905439452433,-4.3877111199470935,-1.8042937322063142,-23.06322713210986,-22.633104178902055,-26.34191712731624,-11.659739107324999,-2.897750074334925,-0.9794776806376978,-0.6246169895480437,-0.25646607812276057,0.48076454248115197,-0.8058252754915938,2.579976062184066,11.846517058384505,12.389577260562012,11.614982038058459,12.062427518058962,15.369525674629626,1.965524638237987,-1.7066352480120344,3.463614637957813,-0.15665687249336105,4.699999503754552,2.8276545080609465,11.61316031605003,-0.34676317688827163,-6.6376096429508324,-8.498275152405027,-5.085711884700046,-4.097707277865874,-13.786959703058274,-7.672921953231712,-21.764708423023485,-18.861632429387768,0.10889723995642801,0.15484368239758806,-0.4553745895916304,0.17909429357853135,0.2536762045271424,1.1233121837574853,5.145635605428616,17.61350411776019,4.597081463365063,9.456631252267341,6.733021300731241,3.259155288730818,2.945166248089358,16.123731773010235,-2.501298869411659,5.914326556558824,12.654433156659424,-2.8574957594301917,-2.178868018530738,-4.14912746311185,5.178505866093874,11.785875236600496,-7.23211862142869,-14.463984090248566,-5.2219135890184925,2.270121108048371,-20.326122344811395,-13.725453642248898,-2.8011908754922836,-0.1222402093680469,0.9296259587189972,0.7163362930977405,0.9204782995269656,1.9657090158594228,6.115523079389976,14.927247758529974,9.40408728192713,1.8830531031963813,-9.710284522276178,11.170725927085448,4.66899016628779,-5.795073518649523,6.474754245458304,-2.0246974314136397,-3.728796991590192,1.4686849572842144,-2.9747168975614557,-2.359840294727181,-0.25130052118246093,-10.742386912486758,8.51898483867776,-14.280679866660304,-13.116411196807354,-24.2238732238097,-12.119714618858909,-11.306852929893676,-5.200961070940869,-2.016785934409821,-0.7078787653134018,-0.45538037875889836,0.5613690124480589,1.6544399500963376,3.7522181126587015,15.655238573455875,18.499235050975436,-0.7124509117897396,-1.5496876658009144,9.870883706119294,2.007462533877229,7.6609541737429865,-6.525559687599934,7.705961094902043,0.7769886153194827,14.875874834673988,3.538698496893895,-12.750174880985346,-14.203721158417771,-17.520510587417586,-22.52835908725549,-14.758804708696761,-32.80745560373463,-18.976932240058556,-4.97013801748178,-10.573644209210935,-7.675374281486081,-3.180714604764094,-0.16535776331890248,-0.2210381642959271,-0.6719363941702302,0.013337722086702452,2.8074136524656006,5.934725366871712,22.141551539036413,6.994724128560998,-2.5856577050614717,-4.511707294402494,7.11335093520403,-6.894816282386555,-17.220176905872567,-1.7630880494260457,14.012972152069443,31.624591079466658,32.93070571762646,47.971944328529894,61.38528606505682,55.48494539261786,42.46605759388145,45.241682766665726,36.02729429177406,36.84491922158278,20.17206199678856,0.544524579627986,-4.272926933618207,-1.9903771928925407,-0.24129143045630339,-0.2020006357189833,-0.44396175412300504,1.1973393680025084,0.22736819265068536,3.9044469195309666,16.059295230170843,3.29320333066236,-14.00170815898154,-15.133776048443861,-14.634994313004494,9.175134952207788,6.8005046895680445,-2.9945880659753983,14.44872143819158,14.877500292583077,19.552377240805352,11.265084512711843,33.83460083351267,89.2655503794777,105.81873525817402,91.60494113083135,78.87735566728159,59.336339474048906,40.370252879354986,17.627983007373658,6.2176570548065895,-1.1237752510247552,0.9720059871664966,-0.638069520264742,-0.9777733578558256,-0.8838019441226755,1.584779398270145,5.570744175764398,-2.274428589162912,-8.086194654155364,-9.431293911596828,-1.008896246564792,-4.538700370199378,-5.884239807661336,-4.54961055585197,6.399364313869683,0.9638026249649492,-0.731281921572155,16.71225493991483,-15.181562210644138,-17.485852426030675,-20.839472845713814,-10.03020176450288,47.30356960051183,42.682646294431784,40.515596763417484,39.37035911071619,25.617445582209335,9.884398898932766,2.3299437039527415,-0.21045948853675592,-0.9624426548221026,0.43332287347963355,0.9039052154290101,0.5623378016424455,2.6241821229316105,0.6473393913205914,-12.110213482604609,-0.24098186117411122,-5.591685364289557,2.810471821861634,2.1415353375344477,-7.968728598130254,0.5611081514587909,1.8353016434315361,9.199238497963744,8.679188098666643,-3.4231775015549557,21.596900997299166,-2.7831387272875188,-9.929988723881161,-11.770060698102059,8.31419543073512,10.040371651201376,14.959369161534125,19.940887026437043,13.555571713295569,7.222671416454686,0.5099548568814886,-0.9746156691381794,-0.7464929275301684,0.7321650855960536,0.8963586505536904,0.9930913188314504,6.330736834171821,-4.569188238141746,1.0883474454298208,10.550886713980331,-8.622294899776556,5.710053660682592,-4.80208352665247,-12.683024510969103,6.888828555060504,27.45177487685762,-15.959868693527213,17.017130878204348,-19.001028434432524,-9.982594997909608,-17.856710633442376,-4.35290163296789,3.9654338955625326,-7.417581047182714,-6.641108736180471,7.101445719025149,11.671861750213319,6.587066482385897,0.26560213405101946,-0.4071956174699273,0.27989490904981285,0.18339543760158722,1.9212454025386079,-0.36821337783744545,-5.092124923881885,-11.134502162902777,-3.681571761475846,-10.225858428223171,4.705726266610971,-7.142148692659566,-11.75327082800021,-6.106862504126804,29.772102432534332,-9.026447842707414,-7.528788755458001,-5.426335273987908,11.536909258176763,-10.842918457504194,11.743725665940799,-12.487601472188366,5.732597050961075,-19.328575496021802,-3.2234313202511564,-3.577578719097496,4.821075027479372,5.18142209488112,1.0310111599468308,0.018012406273886027,-0.4005533416310092,-0.4208296803491229,6.393044339212014,3.333470995165079,-6.0418539437677445,-0.006192384875942791,3.329730591957596,-11.953704473759803,-3.756968852817917,-5.832781508149462,-0.15990932135987107,-12.77771031332279,16.00176607681564,14.452632105883554,13.89078430801978,-0.7472155163580526,-9.863865848723549,-15.572039844587472,-0.9652054085803882,-1.3295764576666858,4.076754478416706,-0.7642855410266722,-1.4951859343706748,-5.778562010958678,-6.203204690665659,1.7912355078862905,0.07869929142229415,0.74429074581669,0.15098633101464673,1.0495275114278644,7.362075471827862,10.261343843968413,-0.6339192500829984,7.491578192021203,12.131406079603734,-16.900973394974468,18.453471013636765,3.329312727773484,3.581114964403927,3.370621812705035,4.118775686495479,-5.655738647239999,-14.992807105781782,-10.173899258354586,-8.69356123204444,10.291892650738573,10.262542312258061,-1.2075408954477345,5.344244247099552,11.941724512934597,-5.952541092757504,10.401610717455222,-4.412456996906147,2.173716029789195,0.2658440579091894,0.12393326265270233,-0.11169933565023514,4.0633882481390335,3.936523444546917,2.176897134815799,-1.736328949980567,-4.057245173185527,18.52150691907968,-8.125666656616437,6.053347644566629,2.4387118508379557,-6.022648181032309,4.714009069075853,4.791954112118031,10.21529722045529,-0.24821898289991556,20.49975412248558,2.8822315615588328,-11.972305629168437,-10.510771102913369,-10.904115659353687,-2.618237134946239,-0.06553351266968506,6.742480940954644,4.924983568733146,-1.3974296694865402,3.052043980059696,-0.2526870541186035,0.7555946364347074,-0.4277635779348931,6.021703082189175,1.691765387549832,-5.644409348535672,-1.7373831911129254,1.9214876884512897,-3.2940255042985167,-9.4953413811754,10.704695591806338,-4.268613874476427,15.466910143248246,0.5266858921623414,16.55793661003346,-22.744931280570285,-9.24821750566061,-6.292025972141047,-3.001041042643247,18.595631696073962,4.621295974147034,0.8409701749200779,6.187832231383968,0.30303549614695785,10.261297656313637,8.272394420095392,4.9711585881739655,1.7747748424767464,0.3141793958284269,-0.9950156117013347,-0.373923886941606,-1.7511542513557112,2.3131639375811943,-6.035591684717416,5.959632644172274,-11.265664741727798,7.930460151260024,2.1525633055813356,-5.8893032300818975,-2.4416640523547266,-0.02302925254698362,-3.7119438479147457,-7.935870989969613,-16.217216151963083,-0.26755057924047077,-12.983520514297647,6.681317489239118,-4.787922629085005,9.793311055125676,13.148868149211275,-7.126894907379324,5.0403200091099425,-12.705252039608503,-9.208104835630774,0.423825623839811,-1.2223913763733232,-0.9037913793616055,0.7262817350927442,0.033293974771374225,-2.3416968267873552,4.125671626410507,-4.450481373993418,18.875633204788528,10.446701069129599,20.07766318368372,-9.629778908434856,-3.823563516529767,-0.23097301272061618,-5.39557028090267,12.889508374405816,3.010261504334221,14.198239078257336,-11.14822603341484,-8.90681660888583,-12.579753688751822,7.314698956867095,-20.869183255233672,3.39503150215512,4.456462207339421,-9.231432740162631,-5.757554879226991,-5.998968286473166,-6.356478758435689,-1.2355274864686943,-0.6841096630298859,0.7897606580666541,0.39769788835686065,1.4774893596531178,2.7789589485035453,2.356743825929296,-18.646595067599485,-9.949223929897467,-16.57895256863972,-20.094187359454402,10.482292256992453,-13.60011642925236,-9.837719186670578,0.6826543658201978,-10.524091855911802,-13.294627439810135,-10.861399167167493,-0.767697306413292,-16.269750180227287,-3.5334569091520915,-6.408759208983062,-3.273820868416488,-19.756237010855052,-13.921290429208462,16.647276167346536,2.25966201969067,1.602493069016312,-1.2334076912908742,0.8429162527038685,-0.7875823537409,-0.9412318409583998,1.3415778700102354,0.9741152105075377,13.93053488770195,9.165977768694365,2.244557960925005,15.8664094797084,11.258795432590565,-6.137915181487681,5.553999261675323,-4.1430913665249856,1.808596344968094,-4.79657218715062,1.100072022541696,-0.4895292799215346,-14.638689657525878,7.762357172857358,-0.8694655853491924,-10.020886347191077,5.740312229743642,6.9965248346900415,-0.46105569997611134,14.638333826104171,4.44212860553532,1.3319833527034939,-1.1430606295481955,-0.9840952423793583,-0.8486940939644874,-0.10917780427667223,0.9521846359102022,0.32571525306441057,0.2809880461787232,-3.8154992785973016,-6.337712664490944,8.288527482662616,-9.423280929531085,-2.1063858674143408,-9.410915423827282,15.307065754325341,-7.442973012159606,1.8729637635944052,-3.756621646869854,0.6410511545765177,-6.109877368553401,-1.35973247478991,1.7992459399817393,5.451610954421756,5.81740315551701,9.38437206149202,-8.449464570022847,3.404895908716413,-2.6607209192376313,-0.3896333440033188,-0.1685823196778856,-0.15250636576923804,-0.8029840926954215,6.684810936705698E-4,-0.3621788854327447,-0.1836435844091168,5.251851738523528,-2.819256468148146,-15.155647474092925,6.865369386290334,11.247453998075216,-9.45102814799661,-10.023860425058228,18.904786359409492,-25.572867320286726,-8.260739381646525,13.651111523985788,0.46942167627740206,-1.8099858704705967,-14.800265125710766,-7.073826505883044,-0.4710693230754353,-6.405403049627259,1.7327430560648478,-5.76137037071243,-9.639666005138318,-9.847238580935175,-0.17092046673306122,-0.17842399540432247,-0.42730316858184225,0.6154004239185069,0.5902752867685077,-0.16994884807318528,-0.09041485524030182,5.229330197616178,8.360602678387075,7.122201062916955,4.636998124168788,2.6036182671682444,-8.08687078068509,1.0377751275363194,-9.226616781525232,-26.53333434349474,-9.839099927719577,3.0856649263035516,-10.340978618690702,-0.9956810324403557,-9.443928450843204,-9.496392663734577,-12.553729902748781,-3.602264730376518,-1.6011762522875048,-5.100786254163381,-13.401701222444544,-11.776906951705863,0.8675014503417089,-0.04544618069063156,-0.7322073426831324,-0.6900565333535402,0.28582602071693275,0.061297853625559506,-0.9591437986763198,-0.4548198907741206,0.21987661581445006,-0.08549136384158254,-1.0749513423902848,-0.9742179765958144,-0.5391788944377103,-1.2012801217950748,-0.9417183675775675,-0.9703640082245116,2.1008284707640676,-6.0800141526069185,-12.459800295207634,-4.7084545661200385,-2.4029473024905768,-0.4677127540760166,-0.09373782535610009,-1.4707833959838081,-1.2344139913582775,0.4085260152881495,0.7435223773731011,-0.969539990379288,0.5710982322130372,-0.842533414338626,-0.19211707240902198,0.34162601944352833,0.20502071521147913,-0.6889248426892001,-0.45831378785372023,-0.9404800269439495,-0.22620767325873664,-0.34256413132813246,0.14616989466007185,-0.2565407925025274,-1.0148445305115172,-0.8555638535670832,0.9394718802164362,0.5747200955333275,-0.966250092207087,0.8466130370374053,-0.2440746264501889,0.01960220055897407,0.689322285955612,-0.7755237434297464,0.013481486552589392,0.9207185108088595,0.43530898503159005,-0.7154575813187756,-0.41919130856563636,-0.8247817574038678,0.9598586192722736,0.7545600695111532,0.3559327541896111
-0.15490454472402493,0.1727458988983246,0.8901532391969638,0.8668174385500087,-0.05261619423535291,-0.25013393669873296,0.31964094758927053,0.11307328483235901,-0.7391545888031754,-0.6348708234629601,0.09788733690734897,0.1017657232918534,-0.8124021540465167,-0.8929591326578641,-0.11152634340691876,0.8842338752939028,-0.987331342579681,-0.8615517776372976,-0.47021413036482596,-0.1390432448545731,0.9191772655559152,-0.6125190384220229,-0.16721364560469554,0.604513381175092,0.5340940134526215,0.5140067955032686,0.4947434411346223,0.9374293974433121,-0.8806032082850546,0.14568514906597607,-0.41050628923026244,-0.450276552848504,0.1300590064366691,-0.978005056448419,0.25023136761124953,-1.0793516852267113,-0.36895084340373546,-2.1429694141101923,-1.9897421702348845,-3.9595393031431,-1.9120277133096233,-0.4273843094444343,1.3326816326223374,-1.4216412292374316,-1.5965314903105912,-2.7072106156730933,-2.2502589985967143,-1.1514549421845464,-1.19843808583227,0.31277359332562604,0.5569318359650164,-0.6531353458960919,-0.5345342600250327,0.9574659199542341,0.29177403507638555,0.4536261940032176,0.5484793110634556,-0.0130774963879281,-0.3874089307127482,0.30823747419621056,0.6597071349868148,-0.06882569905799912,-0.6968800061440543,-2.2144562506085785,-2.1230429530088886,-3.3877010953036004,-6.638043166515773,-6.735140038346547,-6.69084024853157,-3.751932107807828,-2.4870794849480564,-4.9727386669321065,5.033011680191984,-0.9519954830581795,-3.3904687416412767,-1.8484117699340494,-0.5108241447782097,2.6288428529861614,3.1779118633550265,0.5194205122967385,-0.09236166943935897,-0.8494987407080004,-0.47573424717184065,-0.2773333666822311,0.8211432393824052,0.24916883479080454,0.49890965547905247,-0.36350816335160474,-0.2587653250794798,0.0709945507955869,0.654644613890849,-3.556313160552339,-6.482116453046497,-7.457056251724405,-3.555415958637408,-6.60398418510197,-10.869513968760202,-10.99329985745465,-4.582296084594834,-5.414933898294684,-2.1870076001497747,-3.506975825096285,0.3730793817057414,-0.7256746628918985,2.5504747795036957,6.466613535835616,3.296951023912116,-0.5182605045342021,-0.505637382606347,-0.2652378458220921,0.669350222987619,0.81171025218692,-0.3279543109636234,0.5803198305984584,0.5610861401155588,0.052578094786932254,0.6029276870515474,0.3016134205790568,-0.06470867184967273,0.8691925086880905,-2.665184115230105,-3.800415481571305,2.1794617060969053,-5.371063326369668,-17.650805745801456,-7.804296090695208,-15.511483359746407,-25.398772951016976,-17.96909983341508,-13.954286095527607,-1.490602865669995,12.089205606599684,2.748973876983276,15.440114201326374,9.49334633435208,3.0439187503879417,-2.4688473853963444,-0.7657852204536554,-0.05627634742985445,-0.9668297154559164,0.054837257847828225,0.7576323813428778,-0.42599534132155453,-0.4156117577437133,-3.7911521806422948,-4.353946003670708,-4.619782210180424,-12.444737683567368,-8.008640006205907,-2.561657288228155,-10.003707287216827,-13.592834651435645,-10.349183690638487,-11.961956028183431,-16.136221348039935,0.5448726692872168,-8.711088203332029,-14.70536167097226,-14.514546608952301,0.6528147744861637,-28.34591991028557,-12.013310140141021,4.376770669100109,0.3375290719234644,2.911677676718827,5.380143872070583,-1.3209019629547416,0.5040505194959595,0.28545435932621377,0.18688277576969,2.912170904985988,-0.49953698602313984,-8.135633549536033,1.3896883452578865,0.2552141874979313,2.8889621195578803,20.865346532897714,8.499478067219885,-1.6303986575362095,-3.7858999822465402,10.749565005477105,-4.124494148478147,-7.786538507121907,0.8582569039783421,-0.7266899983678151,-8.325617397059373,-4.86464655623035,-9.148801915814115,-21.15672262388237,15.512512715294626,-15.547912289080555,-15.332285937086255,-0.16050735021475626,-2.83633815895259,4.053694285313419,-0.0490868506996902,0.2580453869593584,0.9581758514806911,3.520195608658063,10.365166945294803,-0.17099141188975653,7.135821255771853,-0.07141111059632577,12.62063763004367,-2.10592945277377,-0.49736486614949393,28.680821576356962,-4.868573728511476,-1.9306295544146659,14.553135778240794,-11.68653500583161,-18.11656616788665,18.120665669977456,16.885080299189024,-1.3939251363614114,2.557049158129166,0.07214242821583636,14.668084606452375,-11.444343857910509,-9.363287265049092,-18.92034127576316,-6.060328468394096,5.532957496379777,-0.591363940282998,0.3375927535829075,-0.6603528057726998,2.4592060734224583,10.9929306287561,-8.739548850941679,-3.5402317602237767,12.209776774883945,12.46095861465987,5.59276617648979,17.16213037064814,-5.199379933763788,7.475110445826089,10.927984903473378,0.8609867385179341,11.333906979365741,5.140830491694757,10.107804443177017,-5.171261916462168,3.057209861996834,-18.46190421437167,8.00346088567975,7.973118114991529,-12.383594345502278,-11.071787548537795,-6.916692497034801,-0.712087840435782,7.944907336715804,-1.2379690619117623,0.9757022633114143,-0.3147463569144718,2.076734209302526,4.884504675806522,-0.07763614838667113,12.406613000697877,6.455152008583086,-8.22442151426017,-15.872905041959232,-3.131257427768995,10.901464762314726,10.22392899069111,13.692144265991821,2.7243698808353622,-9.020569740866407,6.502979615259214,-0.9652331568394986,10.947438570479417,13.342865233994914,0.5388281904621154,-7.455100944755787,2.0401261719926684,-5.740122435218042,-11.243462552083878,-18.238045458205306,-2.9776251522031347,2.7603041107202113,-0.7687547840505176,-0.5373711588432779,-1.2155791082746885,6.876744136425834,5.873889993748962,-2.500531827000454,13.449434611310895,5.155948015958866,-2.525401561759181,-0.6504389721886811,17.141335115600118,9.763736821962336,-0.57127018759602,1.3906030374215288,10.737757204220463,-19.932342453281084,16.402580421637662,-3.210923843964252,-8.716181731119699,10.660888942436806,6.801204228310003,-7.098306435379734,-1.0316397401823072,4.499802169790818,-24.85109019156263,-30.812310001787086,-6.769250126562226,-3.3186444249402633,0.3966069849199014,-0.43623571021311003,-0.4190433561683879,1.2148526297865916,3.0298478017195576,9.224890986878416,2.662308447311543,2.081272053189251,6.839735795313827,20.23038515404311,-7.831444440632595,-6.600967235157359,12.882329195753853,19.365029680851034,-26.703715422454017,14.394335112823626,19.957837091977147,20.50835774874568,13.938165314370536,-5.826460265307436,-2.7123453927388685,12.622296463759413,0.019608707379114087,2.4280002138516568,-14.155119989792174,-26.111504969604947,-7.578096478013922,-3.333941129224367,0.29984357576348436,0.014963042066745277,0.1321029603789655,-0.06726502087382884,-0.07274458111697055,15.698403593431445,1.4569311530620253,5.661169062136686,14.393213934325104,19.424021562634934,20.61679641849909,11.671083268421127,13.67399307401631,3.762262069660275,-25.037656081524396,-11.748335512915643,-5.324352052970267,27.066349661468344,29.18505265441373,26.569394462374163,-0.4601079555084406,16.26436470231864,-13.460967570824543,11.861374197607928,-11.953479711735325,-22.22598278068754,-5.013369676333623,-3.597228264965,-2.244190665075853,-0.9389991092281359,-0.9669881828975183,-0.8956593323329441,-0.11282149837137626,17.80903347498546,18.260865353014136,17.21755448281656,16.644545658549028,2.419294151195517,-9.5751812470558,12.310527928534007,-2.617430555428809,-4.2795368199538615,-20.68456093607849,2.8719549483269815,12.114382647195518,11.479458407127217,19.075451580125094,-1.9113922073343148,6.1237606228379455,2.139954780217876,1.1229998172627202,-5.053164067176897,-12.569214991923204,-2.197938272567207,-2.602172910206926,-4.733841236811526,-5.308439746712239,0.3251744484345449,0.9972204019951325,0.1718178520987698,3.079405772391975,8.370141208913418,6.992126620859952,0.9123289419478078,-1.1394663274521029,-3.6746610938278548,6.206038270299514,9.718483927579264,10.812068672889481,-15.38115281144943,-4.033530926936763,-13.877586714616665,13.999950441159466,-5.418690711433266,20.057449760015643,9.55322446175528,13.906241874750977,22.66680515377976,12.425715413621612,10.076389855263537,-14.380623288180615,-11.862632071765043,-8.825581617477452,-3.1657094215878736,-0.9915845048589068,0.46670320757715156,0.9577865919423356,-1.3348127475901193,8.56288703349365,-8.135000251893718,-8.365896179888654,25.257914348130814,-2.2725963564359852,14.473138076506142,2.264905858985708,6.126301027858312,-2.318646418114746,-26.04083028303007,-16.96265778671396,-8.660157757615044,19.611168103312174,-0.6837478429775584,15.30158093579357,21.407539881127363,12.894934206138174,4.842520452629217,6.818575668038849,3.321433844726544,-23.39006370789671,-13.080441709042866,-9.691633325835795,-3.921033257743861,0.7023032286327886,0.7485199412248265,0.018364992341273263,0.8902483245008254,-1.203514984398598,-9.750943347959327,-10.428584701725077,7.649460557852475,8.702125511807218,19.583224141832936,-6.876678260321353,-18.134396139605446,-1.4333736135556432,-8.437938848064658,-8.221685588640687,9.423353640314636,22.221005920216097,5.396203243073139,11.29286441422558,9.908434518393554,4.516467554066132,9.27722210874603,4.478717054873886,-4.968672609175175,-16.656524624768313,-16.48324351907817,-14.27232696555523,-9.418414368774071,0.3251063595514947,0.19678533300535817,-0.14782785081017832,0.12827329207568955,-5.213260775948536,-9.015762388407351,-8.068283141538904,-4.563810044395047,13.784102291520785,-0.4086001813811902,-15.987406715207008,12.239534075166794,-10.732267738739482,-1.7769323794232819,6.621279653135032,13.48170764515523,1.0630781423474391,3.49262560493752,8.714865774898929,8.874613781410122,-5.95754106681828,-10.706251042602275,-5.5298747970305975,-15.691160866478718,-28.444327077894524,-24.324692144552177,-12.689478908897808,-5.117351065552805,0.3166809881527791,-0.7719093419156106,0.5161797537989614,1.580465871694295,-6.386186471974926,-15.550882980351304,-10.16455311373896,-22.81042328906267,-3.0880024901352643,0.07369077250072438,2.356015064647365,18.684977127902897,10.395191535259316,13.839143753447445,0.14520092967056034,-10.275421350625077,15.099582680579516,1.6228547323630076,-5.037269279611538,-2.097879940456061,-10.810500858263046,6.904189118568299,-7.0381846487568405,-28.24522303129302,-32.56047451823106,-11.456822737193598,-2.740145910966573,-0.38309092772033637,0.950690905785888,-0.1302512069409518,-2.3548150708810125,-1.399823644290638,-8.067228210166977,-15.057021562127163,-19.23120941609165,-12.11960721584807,-22.221822840983773,-32.99595197053196,-34.0713651443752,-13.425973143327466,-15.85690021650077,-8.778615982984089,-0.6745815534160026,-9.841448462891396,-5.371909482808526,-25.516224727340827,-25.321925815319073,-20.853078407366013,-27.187039401859124,-10.012837152496713,-20.864093071181017,-29.51546567004297,-20.412923567303785,-0.9924716386957109,-0.22803475715501245,-0.010242451074107836,0.3120029561117357,0.3262364917000813,-3.1760942619409067,-2.11533627802137,-5.744001675657393,-21.743189934215945,-25.285278692653755,-23.85000736998459,-35.72708747476064,-28.74527975941787,-24.20492785788072,-32.09179508774633,-22.44249658195254,-13.009307567824493,-18.628211541482855,1.3876154340335776,-12.555620065246728,-12.333947566150483,-5.575225107122065,-22.528239968426952,-13.403412909612578,-24.497193750137562,-16.37716527980228,-18.795981762226063,-11.52678401340623,3.853504330234189,-0.3720809161882374,-0.543770578796328,0.27726639247996926,0.3158888987706344,-0.7831043879376496,0.18323972886448028,-6.064439031798663,-14.024489870997712,-20.89977757480837,-14.178404065421804,-5.750411471701348,-8.183879974336879,-11.803199026087423,-12.036195935604734,-33.93556270681209,2.469438075741424,-27.614169822356278,-18.168379285723315,-23.207397877094508,6.586658588861453,-20.5305253322719,-24.439235761513363,-6.203116406092725,-19.26697573870438,-9.311248559925156,-14.972147694255224,-4.961448094272431,6.525144457016361,0.11488397108262664,0.030037609237740234,0.6222560769631609,-0.7481862935263021,0.29517716971723323,-1.6678630558441574,-2.4039962608444188,-12.327497110710935,-6.656134639737073,-7.467829127631723,3.9248134612743084,-7.74173857051244,-7.008123468459521,9.482380269413197,-6.745684130996129,-9.725591059312482,-26.269893341444867,-11.215158554200434,-15.365235925302683,-1.3235915965480638,-16.08819940371829,-10.943197872121088,-10.987384109487841,-17.777283140213008,-10.128389050285703,-10.51977114998326,-3.558384062083432,3.749180748855732,-1.0111299306270294,-0.8979417533971831,-0.5830568077127689,-0.09927962678618085,0.2015287511995596,-0.998658076466188,-2.835819400766058,-1.3259884690595551,-3.5933326156695107,2.9819276539034028,-10.78441496798165,4.600269320631876,-16.521209212608543,10.816168939513217,-0.14723326500183878,-14.751720613173571,-3.917093415465078,12.562640783635219,-13.939142126333273,-18.169973728699595,-5.7460600867657154,-7.115408450488248,-10.939035920045663,-3.1884713786199472,-18.438443155544736,-10.725856320168006,-7.649066333564818,0.2434123681470187,-0.7313155767612419,-1.0164539533425745,0.18966858823180033,-0.344664024170968,0.3310477419691682,-0.683048826559278,-4.758314645349002,6.661097101481363,14.422875051826214,11.31740242175853,0.039987804788951455,-0.5545845944125928,-10.210161728646057,-11.239818238583135,-5.094663055312186,-30.7632517117783,-21.165156638155402,-24.622725490095757,-7.487913563729872,-32.94960125456762,-15.593791822646754,-5.689213007114091,-3.649799162695934,-7.382511172545577,-5.229772871751092,-3.9096449198009733,-1.798913247047377,-2.2852583332950602,0.15723793178429904,-0.9109358713472656,0.37666987470811675,-0.0044559989903014685,0.3561972373361846,-0.9949413663613363,1.3801132828900728,24.659249468622473,18.239212711481468,6.921099286980689,16.054092981185935,9.069054501983373,-7.913307079557908,-18.048779696625385,17.093131146189496,8.602175155229247,-4.273334619138316,-8.669947213729538,-2.517388547821695,-17.003811760879604,-14.89712284669081,-8.004217552006429,-16.69416363139274,9.538577369097895,13.097964709008686,1.6681565522068493,-1.7620279899022715,-2.6200765903899272,0.2084096541292049,-0.12021277423228449,0.8293894300695326,0.09033290722659726,-0.9491377122691682,-0.7605823884914216,-0.3791370788161921,-0.5823881256635918,1.6272143235449832,1.5765651646078842,0.46962356759508195,5.659437988710967,10.173284409023818,-1.4363712343085218,-0.6436005487119141,4.08626266531647,12.655858429298583,14.317611697727934,6.582760778657811,5.786278760872211,-6.750070157911749,-6.236507357939307,-0.19218291155124753,7.010240223582843,8.36628739823893,0.06680965330928601,0.9314601187236607,-0.20032853659035532,0.648053979915552,0.7509458397403026,0.8911667467031674,0.8070954459064408,0.6979848047074697,-0.7065309261860344,0.8188504045547345,-0.34735770777727265,0.5935557857991002,-0.9696016894429013,-0.7297966064521707,0.40965018525423635,-0.6448172453219125,-0.09200759347936831,0.6846772386433492,1.231877874522947,1.3047625071777205,1.9687886213112247,0.39001165280695843,0.934947475960841,-0.11009992982748787,0.48887219403066867,-0.20130343559706315,1.866686877641495,-0.046295698189092245,0.8108385150521576,0.5222449297044863,0.8176047700941609,0.9870340868028076,-0.1282189309340167,-0.2716885324548608
0.646772042830879,-0.1282459879893092,0.13922797715064883,-0.4091159222923937,0.3191752557398133,0.13831218760030972,-0.840517317155457,-0.3020291373914301,0.8827390009002072,-0.17464653676622666,0.9273043043134104,-0.32620276198649045,-0.5895709950766327,-0.9068954303709998,-0.9413978961653284,0.08200430759130027,0.8106499937792013,0.30820350026024856,-0.7642399637199275,0.590389187786208,-0.7639966614734286,-0.2419068243946665,0.44178140289373524,0.34165677508303594,0.5108759442511448,0.55070446951543,0.990639248275186,0.211883481907144,-0.6872148626035439,0.27273193159996767,0.2069203535982067,0.4372233367631655,0.7194408263203224,-0.9398670315703884,0.016054884967530842,-0.047283351263661164,-0.8156915420358983,-0.11729828910526074,0.6895589816661253,-0.2772586795853225,1.0310201462329969,1.3143238009048186,-0.49034951299228935,-0.8339609222417567,0.5090184567122829,0.9903866173199982,-0.12000466200877337,-0.534192517021038,0.17144648583849217,0.6993232182324365,-0.2800752402288547,-0.6604394565651234,0.4475151392174812,-0.5387959718568198,0.4697295601353697,0.6953337294381126,-0.2513355000474877,0.6241533982172198,-0.2952524796686026,-0.5123817960885525,-0.6279634257522059,0.6945781851924067,-0.2156161529807362,0.0862692008928755,0.89644481371917,0.4576495594583154,0.7426290891568574,0.9284344508772465,2.023599670329769,0.9379427132495849,3.0640648409723417,5.478030130025289,3.5794664059792956,2.472478443726055,0.5779068776623066,-0.08572641316858465,0.02130714574768218,-1.0906811677842594,0.7936274488641709,-1.2041904868638516,-1.0080000148785255,0.8665172864774862,0.15321731183416953,0.5194876650041171,-0.4562836550131768,0.40521764986079156,0.3887504256677448,-0.18696576517739125,-0.8362789854686239,0.24132255293336288,0.4083117762904852,1.0168369795004732,-0.5601906784160661,-2.6492004162003755,-7.392272000121945,-10.640463665206514,-8.80164941929359,-8.096134433518058,-3.67405031181799,2.5417203914624893,13.834666650312263,1.8984148084742334,13.939378343222346,15.29209050272303,0.677438298403733,-3.6993837712113224,-3.789813848451556,-2.0884229049356877,-3.15002378818302,-1.2474259832054557,0.23677840611104292,-0.9998189445727306,-0.391957486073359,0.4022793265838563,-0.7944619993112186,-0.7782916672213205,0.7891010040624143,0.9597686619246658,1.009031605809145,2.2371981165062,-0.23995876789808213,-7.3038585041483,-1.5138186690758337,-3.8063374452246412,-0.8776821956986024,-0.8041042435642262,4.12565812301829,11.505906588270973,32.3939603340475,23.6335703997,32.09175038152372,32.040157648648695,29.158586432248473,6.146281402851348,-5.396352378724411,-2.2080938170222364,-5.746963655480928,-3.153208354862624,-0.5939885312037804,-0.9848077392899298,-0.042330867710922426,-0.298660413701467,0.5412077614816327,-0.6645972742628249,2.1499187678703695,2.1180910983694474,1.1820052259503961,3.709245198535447,6.893534838141644,9.937170047020723,-14.014705371461547,-0.8801023466563399,13.53121828225198,-30.824855856513796,-8.337832593771648,1.1261028749833288,26.9412914547079,2.010239373186532,5.2062090007283555,1.0284818409229213,2.073853901515929,-5.744047765698774,-3.031228692385683,4.34912305963254,0.2824023984531472,1.736518329505716,-0.9653185491426644,-0.9422043323776005,-0.672503405778387,-0.17439391646975563,-0.399204477241492,1.0870675436254802,8.390198475164281,18.87737704460363,12.03882407355852,7.3991831226203075,20.38161523720756,9.369949925125015,-20.7043316919807,-20.477718753684204,-22.388197389282325,-34.298039913160984,-46.529209633381754,-24.6573879757011,-36.5222535398836,-27.43176262080446,-25.84371400942387,-5.6560207550683215,-3.650044999462875,-14.923083263901574,11.374996157559492,27.30276398863442,12.285690897203384,4.986259151264308,-0.8715789068763885,-0.0402866069703689,-0.8557624670422121,0.24233587405900664,-0.5084188599011786,0.30531877370846383,8.877916481122666,18.47167951947114,17.089930281085085,16.807390180524077,3.849206978627292,-25.55376498233693,-16.888750521246422,-16.644470398214676,-58.55609028020672,-15.585249770578804,-49.76589185585913,-37.082822685141764,-34.10831589076626,-29.884649665447633,-16.290394455418074,-9.087674183132615,-36.55030453979855,-15.40530110292392,12.584713886100369,20.294174189354557,8.787405310203829,13.385755117418965,8.353941104660711,-1.4576734835090797,-0.8426929295105137,-0.5424506689927443,0.44627474308379683,1.6069667065944673,7.6187966091128425,15.067883029371771,9.709356840559865,24.53960033994332,-5.53878451859641,-21.476713440978507,16.889984990333986,-23.575096994172547,-4.992351077665727,-40.915605132792805,-47.40454803789,-35.49888786126367,-48.06835154821811,-22.015830847879656,-24.810671587113642,-11.848387006099422,16.11860712744734,8.231409482271467,-10.614531549305692,6.565653436700707,3.738808350631047,13.110112663358509,2.3709177690340386,0.7169785876171703,-0.3671640032379976,-0.08179773366661518,0.49496541430413643,1.0003814431755989,9.249009427602397,5.549677965006261,-8.301353177955226,-6.197743187409503,-6.669134961999142,-6.3790777773932765,-6.343475481246857,-26.2537720383516,-20.11640053265363,-27.542223302799705,-37.589297983228136,-44.79564890754798,-18.379709430134888,-11.780964247178042,-0.45810387450808016,-1.356415988452896,-6.5283695790156795,13.776168438386312,-11.93084039371082,9.42215862365934,-0.28385385026819016,0.16888849466038633,-1.0630535468179443,0.143525420660117,-0.16439417350022695,-0.9236247008226902,1.1276490897420726,-0.17150641154587312,8.189210408542012,-3.288888263789349,-8.69989512248906,-5.918261506655192,-8.50212059391689,7.905123703041547,-2.981377817347273,4.99897617642241,-2.8312514327628016,-31.59878825001381,-52.48568280824695,11.070065791756045,0.5885370172189651,15.444127485463245,-11.190320168208729,9.629669094497542,-12.769622392985355,0.19153408305873046,5.577969541805914,-5.72644217806065,1.4257635418292482,-3.5789344109281602,-0.7389054428293872,-0.3656302775260377,-0.15036947684918622,0.5844588838291127,-0.29166692839183583,-2.6047470794593797,0.0032217547945750423,-20.010072761521613,-2.866899789721479,-3.9010862319027733,0.9561336656015627,19.491083461698658,21.272475209920955,8.1008631936528,18.89115612577825,-13.08092621895418,-7.829451811576779,20.620420227912295,8.968640444095415,1.322907849040058,-31.306955169312566,4.030705558345821,-21.83485757206192,-8.108223690974718,-13.116152124056041,-9.183200108559205,-7.177992405914407,-4.477136776762895,-3.6030701632895092,-0.9127663597742298,-0.4377074548368434,-1.0165446285081015,0.12353814196632353,-3.019407644036695,-16.28210354270886,-20.0081843840646,3.0962727355616453,10.673339145950724,-6.8968969802954785,-6.053651989983396,19.86826387904482,44.96120756720195,54.077004469868186,44.51297774372815,-5.859906663107212,-7.173958436635238,0.6340000910609898,-21.165650577128638,-14.431979423523439,-26.44860797951135,-13.681093376392141,-13.07270192422835,-7.030143512313582,-2.659580238586003,-2.1548242960247794,-1.6106534707331572,-7.49965737326502,-0.1825118596259017,-0.46028684793518665,-0.6190467101465581,-0.11951704992717323,-16.19800455933552,-12.716652489445412,1.5520667177566598,4.924444217341999,8.441520209979586,17.243921464247556,24.96771155289862,20.65027563313504,38.45145760181484,41.74522772456584,-16.18402101762554,-33.27921302935684,9.749035869371514,-1.4688411430113895,-11.995171801170027,-14.99607950286829,-9.527322050420278,-15.81887032918628,10.08939523115063,4.2308865781051,21.12698589903077,8.488795659733205,7.568754296476819,-4.774072967088405,-0.30788950448997326,-0.18899234256964126,0.9929301330494359,0.6063294883041105,-3.5161294244254298,1.9355821099922657,17.39306839567889,11.969042387636208,18.630594830316184,-2.731630046654733,41.03832675909242,-6.159994931417417,29.62885754312781,31.511447853632585,-1.8454746227861047,5.005491496439011,-9.250944260207325,2.6382935928684437,14.901590574110777,24.01686764151628,16.227075876541946,-1.8248758887671357,5.6901310883479965,18.653906493062774,11.341966633745804,13.097397810127688,10.328183592011445,-0.3816890621070081,-0.6005330119766987,0.9730648622911382,0.4637761018425401,4.432673049143402,12.548754736414288,13.709665429017813,7.593250361943972,9.038467599359688,26.105440039572194,19.130599271063467,38.781212440304365,-2.749753620245961,1.5916629865971301,29.029074953550424,7.184693622338221,16.483412306710964,-17.817558755665974,33.72104686204399,0.05639194669613187,-9.906727796558007,16.696319061588117,-25.949124793863756,29.092509192750494,27.58519818746977,12.755579581584763,10.906690837613928,7.067349792387595,-0.7312249683914857,0.38892226211045633,0.7944892232027655,0.18560671048664557,0.2765974934059855,7.490221647358315,1.595455615523772,-2.9692271203700793,-1.4917078344035712,8.56510716487621,5.312356732072512,-8.849019500418036,-9.654247015449755,-1.5687077378658256,1.0777303178660151,8.91615737922921,24.730728603633796,17.559796209644812,20.28576089210863,8.360301302059453,27.67499967183617,31.534840345163055,26.14125663824018,39.44283203063981,12.383758974783401,6.939274738951451,5.946580349484396,3.462823533128811,-0.6230307818196247,-0.7300290045599669,0.5504553947619613,0.24441334511113927,1.029489900824331,0.2852061271673171,4.720319044526436,-12.146192567871509,7.299354851613962,17.65569478696926,3.5236513186138283,2.551086439720199,-6.754333305087617,10.98617492563345,-2.8205065505922446,11.939289738011619,25.994314078033792,18.346992567796274,12.583068030122975,0.4286295307022907,23.11512518729664,8.055227206418428,-0.8221967025056283,5.149003458592915,8.14159802292784,3.349562495533909,0.5004530599376665,0.4218947141291951,-0.7308173324727435,0.14011532651537625,-0.5523867743210096,-0.49018691359713584,-0.21624552826707746,2.9581727599655685,4.764773359537517,-6.0917816188762925,11.203845774879484,17.616364306949386,21.152832700853896,11.975127490653271,-21.96609632313502,-5.364668940353574,21.560269699151387,16.50041986155775,10.761654863000205,8.035653525411805,14.049612084033912,-4.803966769343521,10.595848123051988,-9.887910816140664,-15.029468386200596,-6.758865874561713,-7.3910538756503295,2.7948478681708666,1.316313710921511,4.602463133668093,0.3804807038986327,-0.26139530831987035,0.5763347694642083,0.47032647957262264,0.7548432286242414,4.673957089153308,10.326609237406387,4.642317848236799,4.533471812868373,-3.7393867879962293,-6.73285014703984,-3.260598030507158,9.490688411276128,10.679355451998184,-12.414371445526948,18.803276398052923,19.628819162536658,10.45921248789053,-1.0600069839647082,2.4710125999220387,-21.013279356237007,-28.5198942352639,-13.544574988920537,-17.235496620841406,-21.777341247480226,-13.216347453266348,-7.417558062637617,-0.8859461717320123,0.2653492394898881,0.2615929741495284,-0.1843972044417468,0.8666662366851613,0.2913827535897309,-0.9985871058634801,1.7315550863464462,-0.6433782582674717,0.5632904066473012,-4.5589510380703775,-13.994872322489671,-2.2814823951318814,9.200084866995267,13.950410121195487,-15.858656832622486,-12.645444089044444,-10.771612091769736,2.528237594026526,10.549554995386968,-9.550776940964385,-0.4888199199310718,-17.027559703883433,-7.081667243585644,-3.5365248739942943,-17.26365234362854,-19.42030251705312,-14.285402463067468,-7.052336335321533,-0.606233999833775,-0.9327356543799408,0.0671327302028574,-0.35626111841006075,-0.9603497399216183,-1.2532375021824094,-3.7107815148282617,-9.108070860996657,-3.459269921805589,-16.297842722744967,-17.541517512569552,-10.146595517000373,-2.9951119491679545,18.34035898115458,19.44611285234555,26.039546504161144,11.194771312388504,-4.034290466180885,-5.718455541480512,13.009236048463123,5.755698380143523,-5.455044296455537,-4.583705648732844,0.20210055675247687,-9.61232982112863,-8.42828424339255,-11.659432547342991,-3.98861799979588,0.735875370814074,-0.9812466858396505,-0.9338930464293932,-0.8477703892750622,0.6137541143654947,-1.3200114578660846,-3.975864051574332,-9.810325238121827,-14.825585820994748,-7.849330860025924,-16.703250392295207,-12.033881642260765,9.460617942926516,-1.155396317201849,9.908251702447503,-4.6839576662653375,-19.395629382956265,17.210461519901287,7.417102997595883,13.975788529683822,14.842084177864455,24.413462024757514,6.2405289682171015,-1.5684613680993487,-3.3713151584814667,-8.24518560775129,-6.562973126060742,2.6136064108662618,1.6898888003140304,-0.7117217677344991,-0.16782978387384384,-0.7880996176966815,0.8172740328825296,-0.19804242312330209,-3.181730177249684,-8.151985890643932,-3.736682988707259,-0.4738772952383609,-21.805127602940768,-3.734264779047809,-24.645577985102513,-8.523071051113778,-7.580031032218818,-6.555925716337281,2.7093674342692236,4.044388925415991,18.57712515235021,11.27887844847237,2.7663146874590634,-2.9251755283443552,10.788555606214086,-12.5206231981569,-13.834805821967876,-10.73976941430744,-9.076666159695995,2.4748462087176724,1.1485395961188054,0.2917468783375641,0.576054369476878,-0.22755101888641227,-0.3870330392685353,-0.680632129810061,-8.5075304163932,-5.88457622617011,5.1957287829864764,4.863205379877499,-20.183968262749897,-9.234763547472799,-4.816877043793983,-8.046878701746913,-14.499801310308623,-5.699770098628861,-9.696479136107538,-23.621774411806,-22.548846365391007,-7.414373898306104,-9.106786420291114,-12.322311179500469,-1.222181780554228,-11.49240975136164,-4.6732542764838545,-2.253638541384223,-5.449053713341947,2.5466346131887687,0.01813904350085943,-0.7200306932536449,-0.4333456945235774,-0.7003421784974571,-0.21675005510823891,-0.13320332166635548,-1.9468272736045686,-6.886870184904122,-1.920221302187326,-7.3047620831157705,-29.682244843027775,-30.65899769824227,-23.591723764887803,-19.867541664652403,-17.408873579363924,-13.314949867895857,-14.513618778909606,-1.5667390360788582,-9.447773213034777,-17.181820173010852,-36.878773342174874,-30.28397213784603,-24.34348954773255,-15.21980338394616,-6.538108905637219,-4.101828534197326,-1.8601144927185276,-0.8191416969496248,0.6823687261586189,0.24122262153525753,0.09032974205055444,0.9399280534729717,-0.6936656034455124,-0.6586766960466838,-2.6357908540871215,-3.07561862234061,-3.7337162109403,-6.13194494896867,-16.12832996851523,-29.409823194864444,-23.200625908139113,-13.456920105531596,-37.92754814359773,-32.10666313610939,-63.759609655925885,-46.25365623083054,-31.504340745458542,-34.55104535082464,-48.424037325955716,-26.156933635279074,-27.285999558402686,-20.08994087498277,-6.9611620893760575,-3.2938596578274955,-0.7288322984230087,-0.40357438924850864,-0.4468614964686093,0.8851618518578399,-0.8013387172547302,0.9148722514026932,-0.420859084172279,-0.9572625084674733,0.39865412573884196,-0.5941495215186038,-0.26609950533579113,0.37520077113423883,-0.7326504646238973,-8.026880088209623,-9.451042104997184,0.20957539829855293,-5.14165371033368,-2.486360123397271,-6.927606741787143,-1.2444160776732367,-2.903893946278602,-5.92725104461334,-12.14694325076325,-12.385314243109516,0.48269575266066067,0.8074246440012175,1.9398524618345336,0.615820898542879,0.3354905573876954,-0.09941984922538549,-0.3757232299537896,-0.11473748266140182
-0.5571585521891258,0.2987367575552742,0.8731122413702874,0.44383706228077524,0.35047583597476994,-0.032623269148113865,-0.6581405990035332,0.7716821091261672,0.12632852359060376,0.319310443256696,0.09848180475116775,-0.6203609911159176,0.6299895449484146,1.1192588044239427,0.14701552939939122,0.4815339441929961,0.8351009234437701,0.5263777830626575,-0.8158281154988614,-0.26142339096042244,0.8607456441509966,-0.83956467606016,0.229015169019952,-0.32123500969159036,0.2256394909156334,-0.1416553651000685,-0.7341482073323222,-0.5816920991339822,-0.7676645926865249,0.47400292589935655,0.13629320418947466,-0.6390899670510981,0.6524081086085435,0.6695138132674632,0.6024555123708227,0.9886456926120842,3.194893538302241,-0.1439604224932306,-0.4297988364912784,-0.26547837852526296,0.4189867382315614,-0.09366020787128317,-0.395736454384108,-0.4435973086024388,1.1183932115773179,2.2093477139658138,-0.0020554112821952655,0.8558481274955017,0.03735125221023269,0.23421405664037628,-0.37644605960214556,0.7203332800928061,-0.5128377352361484,-0.9304669202976186,0.04726682608772448,-0.6617373433092666,0.8323984236813964,0.14059411860917637,-0.8445105496225456,-0.267779707713774,0.513010800021907,-0.5538903151485277,1.5641463009908267,3.0802921765822666,2.9963250002066504,-1.6235350371917872,5.119574228092053,0.693998463229084,7.051755595650137,12.05043662899809,4.103430906318224,0.16685752400267517,-0.8816418222366244,0.5995752000073421,-0.5836006861702786,8.920323958413539,15.277234299672234,19.922075805885548,6.732332717488253,1.9736129911083933,-0.051689200121836636,-0.8102988346668898,-0.33994161110216137,0.05820121417134039,-0.6705090998431309,-0.22830545104551603,-0.1306194479369942,-0.9473923501385738,0.5463094521838429,-0.302926460623845,1.748527281344493,4.067578726647316,4.846668808531967,-1.937266844515644,-1.994254936442972,-10.588128965085707,-13.343159118563117,-7.415121357820999,-1.8187762897633117,-24.544179404121063,-3.9999201678000604,0.48901247771746353,6.623373219098091,9.514386984838799,9.890972221940215,4.929442689216885,23.883846875333184,21.351344011882663,11.550896082150633,2.389793104006534,1.2050594965690757,-0.6122099050779761,-0.854415636833606,-0.1357374110442473,0.7217872507639139,0.7991756992712236,1.060938421604563,5.1123493276316685,1.2772670302750408,-3.4241793610722584,-17.966005865873722,-6.8275220299072314,-10.02831338616041,-10.969540333523398,-4.939160207270226,-8.851301585135367,9.610967780428924,-13.855138039781574,-18.51844546861686,-1.0476431952590486,-2.635622076740176,-12.157990556697534,-11.452487301108542,-3.0746972486771798,-1.693012572530252,21.474025932375636,5.3319479151963725,3.0488808520009387,1.0873228005711095,1.0555790508349745,0.8718051244368048,0.22490086904011064,0.5704539744841116,-2.1938969162842414,-7.060380649547258,-6.304819643208249,-11.296566005108009,-10.503559439932957,-2.3710226534879975,4.678571341055051,-6.951115681766069,-0.4709572303414425,-7.422119406584809,-4.5621661415791674,16.626778065961084,-2.452699303852215,-11.396731461295632,9.084064579564679,6.020506570672791,1.955681321641561,6.473213299499281,-10.52002556485751,-11.847824346269414,-1.8341025053796869,-0.17170005215260628,4.303995366634853,2.874359521469918,2.015716764729325,0.31881620652417997,0.8608854547245411,0.8135923765147139,-3.542549739161222,-19.139414833226752,-25.13580001966298,-7.7427363981857615,-1.68601574245385,-9.247246931774106,-18.29966841051417,-7.210238596439501,0.8185332997964883,-5.313960320618054,-18.425353034389516,4.594540537115209,5.133898472958477,-17.010570966102307,2.264054674064316,-7.58523543232348,4.808769964994604,-4.317872934350621,5.065744504246065,-4.291912682585714,2.4229947274405603,8.108147103539437,1.267680414704157,-0.44706937959896237,0.14279270622364543,-0.25417491472117226,0.5001241767529336,-1.3243264428022485,-7.7312401657653735,-29.106743567435835,-27.777335265908842,-31.34657588827335,-4.143755756325089,-7.956220008011911,-10.423228049548381,-9.929726750812051,-7.143914060697743,3.6505310592030757,-5.678199146272006,-13.526100496470724,-5.016459447301054,5.335180518996218,-11.223084069482153,-7.996677034619761,-1.0863162413542793,-3.0283999388502214,-3.7668790706762074,-2.131503858087262,2.0142376229983467,2.6275269365066696,-2.57509361315663,-0.9582371347445225,-0.34859343067487003,0.23191988216878168,-0.4976418400911626,-0.6992143457992631,-12.980930962599606,-26.97228254000206,0.472084414115476,-6.520783691992842,-5.605379703899999,-3.490049952232991,12.96244040805031,-12.850299019198992,-11.500541647927177,-4.05160597917103,-14.219755814091002,-12.45974745563294,-12.275583202798021,-5.030466911306103,-5.555921856032731,2.1038796816267133,0.9608051212505051,-1.0859365597344974,-10.945671985931567,5.5164912688607535,19.670161690242622,16.10528583215789,10.568856255358574,-0.7433528491285062,0.019141469046209898,0.0927454153910041,-0.3120192293779273,-1.0543688520587666,-7.5741075988353925,-6.626301745804579,6.831060751880315,-5.890315791297422,-5.503681359822879,-19.19481958780209,-17.361803589533338,6.893922048096986,5.2697649102031265,14.190439474364691,18.883295285224484,28.77014714443134,-12.74888917549571,-7.110756353638723,1.1681420083278546,-15.700925550135455,0.20943287416450285,-3.717378801247781,2.4363928481127557,-7.029976951893709,6.926226313262735,9.51886631008393,7.205726106178253,0.24321081752766416,-0.1733217252572403,-0.8756133473907818,0.4458556369046988,1.8824579855304129,0.03032593911569379,7.995122002017848,2.0559529432793995,7.3194539216258905,14.46561678185015,7.445182735574722,35.833203649609295,39.281391837781065,65.75437761924258,51.88852233829993,50.20804228501374,29.1255797353902,3.1340830602320224,-19.717408499697097,7.768265831909071,-6.963405892254311,7.962875230508715,0.7398305453073143,5.000465688946137,9.990724005704728,5.239013987161637,11.493732376405843,-1.4684390581688642,0.7265767590364474,0.3525535791165085,0.2657576124288901,-0.2016609009171018,3.8691136972316174,-0.0818078470374624,19.18000098102404,29.813914513218048,48.42600259777962,62.48450388905987,93.01577969074796,91.65417865084447,61.343396385013314,31.58442974876777,-2.928663908719855,-3.907873147102708,4.350018222993399,-3.5046755924133293,-2.1529797457266087,-14.737631616004077,-8.638347837252166,8.404798292100038,-7.644609462221304,-4.076603678002263,25.95274748898373,8.342159554953398,7.96743295303946,-0.9828668194918974,0.10469260708480968,0.016994378671779956,-0.9703946468027127,0.8475544553074288,4.510513245830526,6.639458530406043,30.805116194850065,56.450462175182196,76.33461566513307,51.37454975140285,29.05924068790444,12.66648890717257,-2.075964573678046,-6.239221793517599,13.69373469662388,6.492251612629922,5.257099800009504,-3.4633624293258967,1.9342823528016928,2.433163481754226,-6.6324588940382325,-1.6146024067287226,-1.9589130169652162,3.7270932221597444,23.783554761791507,9.854543383884025,-2.502286338830243,-6.031171922205728,-0.5185628635792853,-0.49906409420892567,0.735386054227395,-0.4984672605135041,-0.39688307026856834,3.2471646891260746,23.818736617976157,32.544716693747866,31.093144796333572,10.64964209437693,-0.12150435710183688,3.994767439782926,-8.234332466838648,-13.51335434044441,6.112599451498435,-1.6249089889903803,0.7323837307972504,-11.637109401383467,-1.7111860849321785,6.1903409018893365,-9.583622604755355,24.770741462889863,9.169231642036994,7.650450905449254,25.065342773264366,15.219131954957293,-1.6464435061774143,-5.337835160054967,-2.730324084326363,-0.5307664526001441,0.21399765885931074,-1.1909587406446782,-1.5991883583581428,0.5713876073998936,-5.0877583397928765,-1.4963574607262906,-0.4319855547010597,-10.003476045792429,8.76283926359164,6.154414111997547,5.507214565714192,2.1545895531480825,-13.480794218731756,8.895738057567138,-23.9097248940007,11.756677732549678,-7.6505204939744695,8.434672981814252,-3.5554877987117988,-4.664646572231829,-5.990177271521951,-18.348976700427425,4.931912916300273,7.668948378256978,-12.235725122860712,-10.407634870293823,-5.717983656578816,-0.0915246158008089,0.19212289180265213,-4.739212095171228,-3.1526404535159847,-0.9123230769281905,-9.737500383342537,-13.873894056134212,-22.760360837854318,-2.1788930890238136,-21.457894401731874,3.5266772108490554,-4.943001551169878,-9.302065543131292,1.9927050843488137,-0.5579870934342097,9.21165911386151,5.92748605175703,-9.924369570854054,-6.393819514872133,3.2672614693709363,-15.484722402469469,7.859178290232276,-12.919299654607666,-1.3512936247554612,2.2270738912993635,-9.291390172752667,-15.978707000580405,-5.140454518753199,-1.225860581858716,-0.8813851031246541,-2.7724328928411315,-2.304018584755601,2.1155155447600187,-13.618910820271575,-13.021039508443094,14.258329846947854,7.925447623498276,30.786911602568374,10.322854281690837,14.908805967670734,11.761851742115601,6.531915757911772,-9.11751633864533,-10.833500783978177,3.3104302680967304,13.404281772690233,-1.344158670770424,4.383647689988445,4.549901718689345,-2.3970324130708978,3.3297448100410216,2.363203432576089,1.9576785532035603,-24.655359829031813,-28.92033553768678,-5.7606831634018985,-0.40144696002947033,0.5687565271564208,-1.587839334181879,-1.2808830515344445,-4.199331864236244,-10.383475721681876,4.9332257982007865,-7.723232556811123,7.767356833563402,1.6761973781500439,4.564001602093848,24.700434197102016,-0.6959412443109159,6.08336082276413,5.84742221353399,-7.739383372264315,-0.5721376594764608,-2.9779608277211147,-8.674661582494302,-4.6326516719737665,-18.441314346813343,-4.587369032804922,-11.43551628809373,-2.3801196987504682,-12.434793049752606,-7.46647353835428,-20.77409828302817,-6.225900834183432,-0.5713764117830488,0.7906399896146683,-0.914568440425578,2.1495436868913558,-7.116522545657984,4.6267903399863775,4.347515491248157,-16.536613957579256,10.268610576338581,-8.384661278837319,9.145860860638336,-15.869298326631665,7.7026554869342725,-7.8747527384742,-12.591394701590772,4.284032181972778,-6.630914212258222,-4.228794280339031,-13.708351670819924,4.18389649920067,-8.330261373990455,1.971640042236766,-6.887587477190989,-6.2023907335404775,-5.301453889725005,-15.470229390606859,-11.41429283930904,-2.5376590720754613,-0.5933398020910459,0.2573562940036227,0.8074673959710635,4.2877864753683195,-9.097771036740978,-11.56666804378263,-6.297432082728597,-0.6333047051889559,-16.177924013436694,5.891606393352368,10.244176863795541,4.4890723971938655,-2.6805728200591563,8.827515665214738,-4.19545020202592,19.882414269809342,-2.464393511996824,-11.615004209405924,2.6332183803575355,-6.436143678403954,-11.263500607480525,-9.2628244988541,-9.874483087175376,-19.80942015984533,-2.108979842061373,-6.191479992836968,-15.79144157463415,-3.946708702807154,-0.46087598759135473,-0.6918653499160448,0.9007812180641934,1.8295157408572997,-3.723233720958036,-21.635213121400184,-0.3906883969359756,2.189998359131529,9.2059671590255,-0.10526216759755695,-7.384530848397764,2.4298320764332364,-6.8400349941453,4.353690890337661,-6.953338995211807,8.137389020251781,-2.369570987130393,1.0765889450458768,3.1862148343949888,-1.507562940925578,-4.383596770797526,-14.674786150071064,-10.068440106941496,-11.019438243505695,-2.4860511342889793,-1.8694684254895826,-3.712964286144483,-0.7575351482476123,-0.21189548296029334,-0.7697770561918469,-0.5178214198726321,-1.6974496399790264,-3.898707314695409,-4.365318012996744,-13.796173322529157,-8.613909241640059,-12.733884839896614,-14.786297288414175,5.204195122799426,-1.9746822203177739,4.612421266888907,11.048589116866934,4.826411088136467,8.200795847767063,0.23258976531236936,-1.6904159812411323,-2.6621307050842757,2.985586388268223,2.199631499571908,9.527182336543937,-1.2380141531333129,-3.9248200766319994,-2.30658857742211,-7.728389605644198,-0.5473549194569947,-0.8671024102919858,-0.669475338502105,0.1600296291533558,0.18959518589409133,-0.0968591151563389,-4.6153331338215144,-1.0895698346049894,-2.9345369803945123,15.159208850197505,1.330677472363213,7.070129119084659,-3.598218114163544,13.856607305390039,-1.7115330314258117,18.43140705130909,-4.260636919013445,4.95753152309752,-1.2517068500565167,8.251730184827503,-4.860696384095668,-6.432797414202837,1.5101746130776526,1.4570702994576918,0.9527191392484302,5.035108232222853,0.6637241821329403,-6.170528344739215,-1.1031977123587515,0.727832767695251,-0.1940646648447221,0.326768888365252,-0.6997984309032206,-0.7384295360455497,-1.269927115365652,-14.875158908458284,-27.723738591909598,6.485417868135064,-14.059564704148148,5.5436217890583,-5.3603655963011185,5.7553445828390375,-0.21395503487025158,15.55417248846676,-3.9364125285566587,8.176891263675722,12.311915319654219,3.493811296136748,8.161601662682342,-3.056341452157921,4.646726279716952,23.234443259815254,16.764046919119444,3.7284704159437334,0.5786455266648423,-1.2493224671645486,-1.33407798565946,0.7780443532740121,0.6102541966328603,-0.876435222255916,0.3950120050824264,0.7031998093780917,-6.718236843219715,-10.64462772842137,-11.75505100294841,-8.205020616534858,-8.44930668895637,-0.8318846207378263,-4.607912851714071,-5.326745185111102,12.123410125170077,2.6500771574066144,-1.0876844475695477,-9.153266902775362,-0.3955363180074831,8.110824619032332,2.2658012492871165,-9.446191922707971,14.802180398289654,10.06439218922762,3.2836249260562336,-0.8452820194303924,3.097947811846295,-0.7493803626189699,0.2810259422100606,0.39116329870121314,0.6467002096032135,-0.5580329969178734,-0.5954611799435969,-0.8286753639948784,-1.2679700535232892,-8.304681880923638,-2.2148312811902895,-2.1098786876924627,-1.6402253220710603,-7.4294996228564125,-9.460004115722816,-10.380921243319948,-9.765415632132289,-15.699051691526599,-11.671281846040658,-0.08549713892205907,10.837013860030426,13.310813968662186,8.954640349642801,8.507679965060959,11.764092934686671,15.272834171261813,12.106806100112852,2.921849563802881,2.977867173958545,-0.6601997495540656,1.0662206177505087,0.6492610546284262,0.005449124613145173,0.5813964778213885,-0.13854600149443708,-0.3715418808804152,0.5891467905554911,-0.1782202876136475,1.0525515857621817,0.6074296057210845,0.07981047471914522,0.5511271136101483,1.2703604556376276,-0.9066713088566172,-0.9173819462110705,-0.9114193639205542,8.731632622295814,2.790665860997959,-2.201496082300072,4.150837692919114,9.72757268941383,1.5413893362701607,-1.75121472717399,4.734351769029949,2.8522824912093827,1.3222472532456278,-0.292309791999886,0.8253845026653506,0.5852284597787325,0.8883942310452266,0.5178493251723617,-0.1406227052436435,-0.19518350141980845,0.2571976369450051,-0.2305320471482737,-0.6178250281060174,-0.8171319566075018,-0.26660990710784127,0.18981476696537633,0.0417030491745574,-0.6631670292753404,0.5799562453293068,-0.04493437018870452,-0.6035588208677373,0.06666870219892768,0.14325253739061444,-0.04590051109181029,0.13140204225199703,-0.13014489903072257,-0.22217342485858688,-0.3219418260211604,-0.057643033667541047,-0.6363689285591941,1.0425345549112766,-0.9311333516486284,0.4006844946686048,-0.7179208623034901,0.07750374728996112,-0.14543032780887355
0.8004488431826451,0.8564370322256294,-0.7001762872323705,-0.871266811445915,0.9611376834320096,-0.6459668527796274,-0.750511244230367,-0.6374959146296741,-0.5732558487156445,-0.07020499271358438,0.658129488153474,-0.46360584500764124,-0.8827029973211296,0.2608060592478357,0.4087891366004348,-0.280185870158318,0.1610024263590797,-0.42170583563205266,0.15948603681943463,0.23985760912100274,-0.920860144448993,-0.2093903359357654,-0.5446968538692434,0.775334472973362,0.7598088771493436,0.8935439288260183,0.6020154482520299,-0.05162007763364951,0.47107626653441836,-0.6180839843677814,-0.08003188812332107,0.28479414666392255,-0.4589747385423531,0.9564344659960529,-0.09487799950465657,0.7755952228337305,0.27166213170322234,-0.5375832933284246,-0.7051148616717555,-0.30390427577801044,-0.8447417600597001,0.17397702742900056,-0.12593835314620735,4.043384610919699,0.7392428721675453,0.4645696543910539,-0.2607591168546145,0.2679797392881668,-0.6648064294294578,-0.5292462691095348,-0.362158511885036,0.6016530884353761,0.5459401235502956,0.9787926742012678,0.9180454552419837,0.07109274629265938,0.15483371704459148,-0.5210308753182076,0.7238082119726168,-0.3702400518486786,0.7340775044120793,-0.8076602462290609,-0.5165031631069684,-0.7473953609839397,-1.6815310685110418,-2.363965972179062,-2.8089435433466283,-6.319096071210373,-1.6439467156268024,-1.9695975852307734,-0.40725077851231156,7.9157726753522475,6.323721193126792,2.228009987670665,-4.080256565813756,1.3972130190681877,0.33755739628596104,1.278366225376014,7.02946757233242,2.4368213662952756,-0.11867276234802564,0.9814506873884501,0.4647537098767971,-0.1194761509800275,0.1265884438255762,-0.1967667440386709,-0.8417262134283875,0.10994087141513197,-0.25765411470961885,-0.5406254497718564,0.13126116818258504,-1.6101700887720847,-6.259864664151281,-16.60824050308144,-16.78710488191734,-23.454690223088356,-18.124175064662406,-11.766608760151557,-12.179492753661082,2.5362538657463998,9.896060995287456,17.574250466269184,19.77634789387495,11.069157561415842,2.4239244093086945,12.146898754279185,7.057351101142392,-0.9198748347103644,-2.3584560236407786,-1.7841593888941738,0.6752264497396043,0.1771558817010772,0.7863670652051786,0.946824353173359,-0.007892230803192185,0.8857899455331623,-0.1634921527332884,-0.9147898018717221,-1.4916618042279115,-2.3080068423156925,-2.527304805784396,-15.745742299449926,2.3566395736725942,-14.849563911210728,-18.23057708773738,-0.40541876816510325,-11.793308093725448,3.197282213866041,-8.214723348315887,-7.893043479789717,1.1954187108212253,-3.5088844777449415,0.8414822730639689,18.642999182202587,1.912771036997562,-14.079632046012192,-8.793870905195782,-3.2878031490260438,0.02437528616160526,0.9120731804253694,0.8530382463482102,-0.772504485356899,0.04915935017109764,-0.7154819840775826,-0.7988730487061584,-1.4542238230711826,-3.567816931456746,1.5431845611054615,-13.353438202677003,-27.492978655810823,-17.234637240427713,-24.529434036930954,-7.740085059440065,-22.223596106189696,-6.808764970820088,15.945559359647964,-5.1435439036270125,-24.6416540995346,6.766621422809541,7.654408896284685,5.83381138714899,11.920387474944507,-12.536804186266624,-11.40355729436192,-7.537291441350718,-6.474411011179909,0.23048067838014244,-0.32595198835862094,0.6948989357889601,0.3263232520436662,-0.7393779238881529,-0.14102170849853116,0.20080823211287555,-4.912313321290823,-12.649874551907157,-16.3484105700289,-13.067080539157196,-34.77808796990246,2.7621813206441237,-0.33918150801874475,-4.58431087796898,-6.210799430532797,-7.212811810849774,-25.69187937308464,-16.651211502859823,-12.96697146346362,-4.014746433125608,0.6587790377175518,-12.309952259212466,6.735218870788925,-19.95470042815149,-4.7240362647257905,-4.639639845440337,-6.202432596645198,-1.4766267404834985,-1.0826609640270248,-0.8112947070305048,-0.3779846965331368,0.9837800930120589,-0.7836633489754149,0.35659797704221197,-6.322981160409482,-16.14138445203187,-19.371482417172782,-12.106535101548658,-18.408455019025805,-11.863850163312659,-12.062162656235465,4.583751821647676,-14.629057943049405,-8.44341471359217,-7.93266044663949,-3.9299412397031586,2.064621369950336,-4.180012637588598,-0.38848772971726875,-11.512979813883838,-9.942413871087611,-18.990577423004524,-10.361350055446986,-6.0422742836406185,-2.8689788761482125,-1.5028289352058157,-1.324815726027018,-0.24935914280832772,-1.6122713758855474,-0.7475586951442843,-0.08903258603726302,-2.623268934885241,-3.287835432383573,-10.741080561894414,-14.842416225580573,-17.20385527089933,-14.579523270206984,-4.55315069333491,-13.067656695738796,-12.09918137783133,-7.734921289563001,-16.78530469370453,-1.27820787843026,-12.618019164720534,4.285899822244354,-9.745078199588956,-3.437223341112174,-12.086249585804516,-28.08911488526568,-19.723140960530518,-11.58030588058301,-10.940858619664963,-5.562047476215199,-4.26624623046287,-0.9517056857420166,-0.6278514711592708,0.7789880777133181,-0.5753391563356304,-1.7642086335843987,-3.531246879981153,-5.874180582728043,-10.832012351041827,-13.314708416453824,-19.59978484301785,-24.368029510198035,-2.554794609831849,-10.471215180099273,2.1962386400390326,-0.9494621239270016,21.64452715160937,3.3121680116056718,12.798882751616626,-27.755523486404456,-8.137303899161724,-3.620024128075043,-26.01931781893965,-25.628820199677325,-17.33737663799781,-14.680768219967382,-15.481081145890691,-7.53676792965778,-4.464588703721329,-0.6115081489112877,-0.37934807511408175,0.7902167910467647,-0.6942158798745467,-1.2878174612393636,-1.5658976503576816,-2.511462453592518,-13.319776524269928,-18.79271214995198,-16.467343677091982,-14.72095344405388,-5.467517532242924,-6.066777948177297,-14.127870968703188,10.204572060014776,20.8663707137609,16.067171530329997,4.559043360516088,-12.545591968701855,-10.483253263280877,-2.721304782235038,-29.173997699084623,-11.88098221339435,-9.888571507528907,-10.447919336322165,-13.352696584317382,-10.436106278509536,-3.318900254780679,-1.073497620334559,0.6292371245579085,0.4019944012189266,0.34133008516860375,0.348365533713706,0.8765873865950939,-0.16640110265841893,-4.669008279060832,-11.509660102872438,-10.146533586130548,-2.5790276987711693,-5.509814815783853,-15.80905836951953,-4.624360917483444,9.273412499906431,23.307175135320605,22.896245396418745,-4.2487086260944995,-19.937359654032655,-9.215613603957062,-27.94133121266994,-20.459293448644935,-8.500820919574771,-6.050462013442819,-6.823207263608538,-10.419357391009935,-5.079400971368516,-0.8281176723077017,-0.727751136414036,0.10184995886109187,-0.9885477490671571,-1.7101268744093936,-0.8030790021852905,0.6964888617697851,-1.2180622880164946,-1.6082238338546622,-12.464977988584295,-8.148051609613118,-0.4828910263477325,-1.0388025994356573,-15.655685436771567,27.193646177210823,9.758320855910675,11.296140801844176,7.1758945468547815,-4.423170879140882,-5.021676810143557,-2.202325863578141,-27.406380941014795,0.2522441172894708,0.7437323492639512,1.4153284539390683,1.2832053856799503,-1.1330077082798526,-1.9457860724717662,-4.4771689348627195,-0.28325754822018023,-0.7001640566531864,-0.769084796571422,-0.13194261618428096,-0.3967932359946313,0.018007269299182,-0.6739432638074931,-0.30580905110134665,-9.008510641450926,1.7629592797966414,-11.411092737436451,-5.985433893244703,0.10495999822572775,10.8161929485143,-2.282919802275899,12.344744027269057,9.260413416268312,14.658492457670079,3.4729392185153367,4.315047316912231,6.114805235046951,-0.20416930473384212,-1.4205381259308654,-2.2413325983111614,-1.8682546020633573,-9.172382069313576,-6.147348088632055,-2.2180506301215126,-0.5321356847547353,0.8522005403505919,-0.9131149846241692,-0.31783716937142503,-0.4169436162729849,0.8752819455153994,4.22922419944928,7.059736233331724,-0.7062598829946476,3.513844978186347,-13.223366420181272,-5.477155607053823,8.359997061411166,8.205701498345482,6.531393085454897,11.807049415760481,6.523548335014543,0.8354393665869692,3.673470946554056,5.305541032464333,-5.815362032010094,-11.244258412372702,-5.510867205325142,-7.168874952806734,-4.3084174161993305,-5.38435464087686,-1.8672053983976638,0.8710687439504421,0.5504359163417438,-0.9529601267235354,0.3792648124394187,-0.7696741813283147,-0.3375323470314035,3.374788365591367,8.496583039531028,8.705370914136862,-6.238719794175934,-2.9862365284355845,-6.311609772334979,9.704467710264645,11.802245763028482,4.275409067510436,2.187662125348651,11.553872892602072,-6.841826545930759,27.204506680857936,0.7551227960633885,-3.0639147082257474,-18.60943680811432,-19.149984754284432,-9.859662958144485,-10.328096418520504,-5.233147959976708,-0.4517771377444323,-1.3224580176168839,-0.14751378735748266,-0.7339511793843838,0.013161879037635434,0.29314163782223934,-0.09565167806893703,0.7258868108101174,4.869090412935121,5.429713911932202,-1.577934273603192,-12.46497804167962,-13.800514623040991,-0.037624806504998706,-6.70402672700278,-1.3324177665489947,-0.719292775531469,-0.5682961224432274,11.537441721152545,5.337595781051655,5.5881815838334425,-11.333557830225386,4.020212341570663,-17.051163477030315,-1.7079716126658586,2.74026966622159,-5.045372310229255,-3.455011044721348,-7.7802196617001504,-3.8988423460743884,-4.087767682235924,0.6134521195982594,0.8904766676762288,0.11218212425173733,0.35952065990661686,0.40464917231656666,2.8676794715972624,-2.5948384145782035,-10.437317500215531,-16.804675912685383,-7.926885285200145,-9.093745981335779,6.626543658159683,-16.266609903478816,-3.1268609895825885,9.195344550411683,22.49801946746965,-3.5810842008683057,-13.414507727375536,-19.186452058921265,-5.564136870898707,-4.256208939643278,4.790403133568532,10.103655508741726,1.9724050091609393,1.5682643642329668,-7.0297719193243156,-3.3056748416195765,-0.4862370427035593,0.4166048736547377,-0.9611346206024658,-0.4670144164959776,0.893932162615953,0.5966378875662626,-0.011278320984685782,-7.464785586070613,-19.38104465515343,-13.809101509270397,-9.957824862346376,3.4138887578367956,-5.24676564348018,-7.8388632625770835,13.418871429583032,8.806609075030337,24.401508709799376,-6.311670321428291,-10.8716823812132,3.4486666230179135,-2.678919214059359,-10.718420343129877,-1.0532353325165895,2.3347187962108693,-5.296766997270789,1.2243337661389024,1.2582536983853683,3.72013627662682,2.985683212040521,-0.6542758490212485,-0.693768817545326,0.36994181498387246,-0.8815878513064889,0.06275472372584838,0.6422791014187565,-9.996492727663552,-16.769201812747824,-9.090633558804981,-9.762089120817983,-6.126399316117354,-3.6393536791841514,-4.418521803842509,10.428741384489571,14.846735008587515,-6.537774021985829,19.50291473150501,-6.993216794047383,-13.971297117525149,3.8399672973931214,2.4602571607799466,5.111613860470826,-6.938655386935546,-11.950692152843747,-3.045784916009189,1.4469843042452404,-0.1843043807980562,-0.8066631226455583,0.7512831253143246,0.9554742630477244,-0.8500880478153273,-0.06212107555029549,-0.9163499066888884,-0.1533325275752229,-8.749241994639108,-19.26813517839863,-15.09784375312715,-1.7734554557706406,-12.998465763770795,-0.6106417011659295,4.341911656261617,-2.046581447756777,-6.073441766861264,5.919681160230254,4.5413615231459445,10.233749670883844,14.608423169179527,2.6992188067995655,-5.249719908478572,-5.894499067591269,-9.50355589136025,-13.369934333840455,-3.2777723417552593,-1.1465647249055646,-3.5750785444906223,-0.6164008384103424,0.9311758763424783,-0.8645418458541021,0.23316402352830268,0.14027770319834437,-0.2591505141329282,-1.9243406257109519,-6.924304290714607,-15.769876586840319,-8.777038166538786,-5.649105928111711,5.043270539628206,11.523718169374888,4.856157341385317,10.660656527508173,-5.905263813201862,3.3868125057318332,-7.1016548820474,-0.6893745466658191,-9.675872204529298,2.1384510454116272,2.642068019108957,-8.01230754647988,-11.472973055979699,-15.514583292347139,-3.9311471460926803,-1.3864991006322482,-0.5008078906665213,0.4691439266011292,0.1426710254806105,0.8505684018163535,-0.32799114356911097,0.19069622847481488,-0.3795003754101439,-6.476732095061329,-6.171917560454876,-17.05663162041366,-8.651861057018891,4.018599750544093,-6.715221644433214,2.692538834665911,-9.545070092249778,-5.476695436811882,-0.9569096189022669,5.478888257175633,1.6432165053639123,4.020125271344775,17.15943174419454,3.3597923006187207,32.18559090412267,5.54707722548399,-10.823933518183358,-8.531821292606748,-1.4400794271088115,-0.5310706532596201,-0.8158357376187998,0.051208923693608854,-0.516432277301023,0.5439506140861585,-0.9303995769614612,-0.11890117286205684,-0.9485550238849042,-3.98800690535094,7.51477892039546,2.4829454266627384,-0.14244552249326012,3.5472124783738015,10.162845579260535,11.064337594725115,-3.1606336308338614,6.882041748766631,-22.84592629921019,-19.398916952427676,4.282066632899833,7.403612316569011,22.620723641395866,-8.710242569720116,1.8231329735231516,-18.29253950978325,-19.12255975671661,-7.112582888235766,-0.6247504694723255,-0.763909821199186,-0.43133216259270296,-0.5134170757489589,-0.9978049365269888,-0.261630849041556,0.09740271940369127,0.5772184137778283,0.0968284007250559,0.60008289955503,-0.8940008777535025,-5.624672495025937,-9.458712803156546,-18.83360622248849,-0.3874490878079495,4.5741417531115545,-11.052038628611855,-7.377266776600029,-16.472891504776698,-0.6483003723289248,-10.393303336931616,-30.230027607440917,-4.132773864571082,0.8913112324061949,-9.737068088656796,-9.574807294447405,-4.18939839201956,-1.9941543598018434,-0.7148149569177199,-0.5181344476655013,-0.8003471292374887,-0.15943608700875353,-0.32412064565943455,-0.2252732861949236,0.27876501720873703,-0.4810128116558878,-0.3067565882557175,-0.6945827791563881,-0.9612761936941926,-0.9951782403152359,-4.818346375803845,-12.139560897305554,-18.772782653310458,-27.868108336099322,-14.908516089349382,-29.80233948358532,-26.670475005737636,0.031954536842232595,-16.978232224063568,-23.00213874035584,-11.468342618047265,-4.312211907021517,-1.2692317056097229,-0.6420510885003715,-0.7549848954133268,0.6902366977728166,0.6717525668802187,-0.665399793221095,0.8220535995515866,0.9228677323653504,0.12452757594984698,0.1393935993118225,0.9447004375446522,0.0827810788399086,-0.8135318855307041,0.7794199230297608,0.5972631572405188,-0.9123376238211819,0.060826268275174344,-0.8483397393255803,-1.9378986891353054,-1.347128502241618,-3.7037299617243846,-8.064021284306753,-4.10138035275083,-4.370628148568249,-2.8234680164700836,-0.7863824372378808,-2.1937522331801365,-0.076984726592315,0.2882907209479319,-0.878189682925044,-0.05869001441925197,-0.9691693970575389,-0.24539918615936043,-0.4807405151304627,-0.6308550144254106,-0.11602691753036187,0.27323410975335083,-0.0640524052679401,-0.9547884675084157,-0.7689755668415406,0.6063675295756545,0.1495711477694916,-0.5484162784935874,0.7932217929748463,0.6620577535794311,-0.18396414383555915,0.33139026798798515,-0.46082394999915594,0.12328288182426125,-0.6387058771471751,0.3524692527053272,-1.572569438922318,-0.15423354063548878,0.4816577672669932,0.8208146971413401,-0.8189879711111109,-0.014319847943959744,0.9815720283958409,-0.6544571945185943,-0.8501028121372393,-0.7828096721886049,0.9211103996811574,-0.04046807002988162,0.002157464907891482,-0.874530352855907
